#define INPUT_SIZE 784
#define H1_SIZE 7
#define H2_SIZE 7
#define OUTPUT_SIZE 10

const float weights0[INPUT_SIZE][H1_SIZE] PROGMEM = {
  {0.0296163709f, 0.1761249392f, -0.0335529895f, -0.0339544033f, -0.0417854147f, -0.1221546520f, 0.1107637613f},
  {-0.3023144966f, -0.0703608763f, 0.0921280412f, -0.0849147337f, -0.0648284203f, 0.0608687914f, 0.0582906703f},
  {-0.0727215326f, 0.1381760639f, -0.0328412360f, 0.1527111176f, 0.0734321323f, 0.0076359548f, -0.0277608248f},
  {0.0813554884f, 0.1636690602f, 0.0621690700f, 0.0668512028f, -0.0641827940f, 0.0803938496f, -0.1036243723f},
  {0.0540522024f, 0.2188989169f, -0.1017293219f, 0.1224811580f, -0.1724075286f, 0.0263282315f, 0.0602595967f},
  {-0.0368554609f, 0.1336026537f, -0.0037086663f, -0.1668959005f, 0.0592775828f, -0.0002000959f, -0.0841086020f},
  {0.0623256392f, 0.0476898928f, -0.1200000753f, -0.0155178697f, -0.0315968107f, -0.0867596609f, 0.0702851594f},
  {-0.1013510849f, 0.0511805960f, 0.0036537547f, -0.0561550582f, 0.0504280823f, 0.0238652870f, 0.1112054390f},
  {-0.0033323898f, 0.1192679718f, -0.0386418209f, 0.0084982856f, 0.1145527535f, 0.0711497355f, -0.0003708694f},
  {-0.1026425945f, 0.1140324485f, -0.0552451345f, -0.0908745878f, 0.0466259663f, -0.0991632658f, -0.0704870744f},
  {0.0519514386f, 0.1420734929f, -0.0567843225f, 0.0776893059f, -0.0052705343f, 0.0681148138f, 0.0084343203f},
  {0.0419895647f, -0.1051394730f, 0.0367398991f, -0.0952720589f, -0.1467552528f, 0.1153862075f, 0.0585646560f},
  {0.0003761017f, -0.1427553704f, -0.0073457138f, 0.0415797189f, -0.0460207622f, -0.0459033052f, 0.0953256158f},
  {-0.0946130393f, -0.0232251313f, 0.0980874895f, -0.0677453609f, 0.0450479761f, -0.0696348949f, 0.0336375316f},
  {-0.0484492546f, 0.0772950883f, -0.0905606199f, -0.0505336557f, 0.0507871720f, 0.0631622689f, -0.1687522403f},
  {-0.0463056470f, -0.1740807272f, -0.1256570300f, -0.1133071776f, 0.0849795625f, 0.0194322889f, -0.0595219779f},
  {0.1415116170f, -0.0085305538f, -0.0119662483f, -0.0392297752f, 0.0715249596f, -0.0827863318f, 0.1046969777f},
  {0.0425105579f, 0.1219453080f, 0.0500265814f, -0.0297862802f, -0.0124595939f, -0.0375795111f, 0.0339129128f},
  {-0.1116360158f, 0.1019764584f, -0.0670747932f, -0.0203369444f, 0.0386660873f, 0.0159638707f, -0.2220240997f},
  {0.0876731409f, 0.0414782666f, -0.1442707303f, 0.0197668802f, 0.0965566327f, -0.0034958770f, 0.1001463724f},
  {0.0596368706f, -0.0732875073f, -0.0110389249f, 0.0992350060f, 0.0881107203f, -0.0650379334f, 0.0457215552f},
  {-0.0436243778f, 0.0453589563f, 0.0484498870f, -0.0381968855f, 0.0596295610f, 0.0305701107f, 0.1200788719f},
  {-0.0856747721f, 0.1620358491f, -0.0875970268f, 0.0366204060f, 0.0207957177f, -0.0748547988f, 0.0702076180f},
  {-0.0140156377f, -0.0977337362f, -0.1701325533f, -0.1017486925f, -0.0267972711f, 0.1044830590f, -0.0102520165f},
  {0.1130534397f, 0.0007006389f, -0.0511617423f, 0.1248046883f, -0.0395903000f, 0.1323023112f, -0.1194036177f},
  {0.0043232642f, -0.0045922124f, -0.0683879532f, 0.0481139685f, -0.0353622133f, 0.1518018622f, 0.0627659314f},
  {0.0182747998f, 0.1315616207f, 0.0750624339f, -0.0651308468f, 0.0407567085f, -0.1509454343f, -0.1172359702f},
  {0.1235947108f, 0.0450227104f, -0.1315217925f, 0.1746710886f, -0.0344894022f, 0.1098006076f, -0.1312209546f},
  {0.0001011021f, 0.0082090397f, -0.0032766387f, 0.0563115132f, 0.1629787033f, 0.0958773253f, -0.0490055243f},
  {0.0204619764f, 0.0412309667f, 0.0392048766f, 0.0559955031f, 0.1567826971f, -0.0850778866f, -0.0107028526f},
  {-0.1772266442f, 0.1366172718f, 0.0225260114f, -0.1047785422f, -0.1756070736f, 0.1643894473f, -0.1294203739f},
  {-0.0637281081f, -0.1268141765f, -0.1476163274f, 0.0153465712f, 0.1522395694f, 0.0891960747f, -0.0063969617f},
  {-0.0373300590f, -0.0584910436f, -0.0647407136f, 0.0119741411f, 0.0171999961f, -0.0873253335f, 0.0332128249f},
  {-0.1032920287f, -0.1447576699f, 0.0840904679f, 0.1161248046f, -0.0952605405f, 0.0316998160f, 0.1287048612f},
  {0.0131827324f, -0.0199808474f, -0.1225444132f, -0.1258883162f, -0.1714468252f, -0.0858843257f, -0.0979348576f},
  {-0.0133937326f, -0.0879260898f, -0.0889431441f, 0.0118610750f, -0.0101358090f, -0.0016520788f, 0.0870510175f},
  {0.0017252584f, 0.0004562419f, -0.1097703339f, -0.1063278498f, 0.0515981725f, 0.2448152074f, -0.0792705231f},
  {0.0463807475f, 0.0324523954f, 0.1621396867f, 0.1570596319f, 0.0951424800f, 0.1714738885f, -0.0324982456f},
  {-0.1282577681f, -0.0896579784f, -0.0542492564f, 0.1083037819f, 0.0156089176f, -0.0090053604f, 0.0360938090f},
  {-0.0485995488f, 0.0425081711f, -0.0716320287f, 0.0601199791f, -0.1116964694f, 0.1604282728f, 0.1741248560f},
  {-0.0459072065f, -0.0178635379f, 0.0607239824f, 0.0757760993f, 0.0401951137f, -0.0826783300f, 0.0529329810f},
  {0.0333763360f, 0.0149959462f, 0.1756227108f, 0.0813447335f, -0.0094876551f, 0.1098415788f, -0.2678603965f},
  {-0.0172786238f, 0.1028650337f, -0.0355339593f, -0.0751059481f, 0.0530935217f, -0.0311349244f, -0.1639094030f},
  {0.0244368745f, -0.0370022344f, 0.0445131573f, -0.1042995703f, -0.1384090993f, -0.0370235851f, 0.0503523378f},
  {-0.1051402391f, -0.1542118651f, 0.1413892971f, -0.1117763107f, 0.0065262178f, -0.0666392958f, 0.1684558290f},
  {0.0346055693f, 0.0783191622f, -0.1176067585f, -0.0296954128f, 0.0038510587f, -0.0682063951f, -0.1684644999f},
  {-0.0319121737f, -0.1050671939f, -0.0335935365f, 0.0430187123f, -0.0093231720f, 0.0166764097f, 0.0169692347f},
  {-0.1499602382f, 0.1377773819f, 0.0736809542f, -0.0273158938f, 0.1058686114f, 0.0568671828f, -0.1615800871f},
  {0.0317995275f, -0.1245134873f, 0.0021911794f, -0.0062393638f, -0.0695528084f, 0.0341268410f, -0.1061620708f},
  {-0.1115981499f, 0.0323396721f, 0.0147917719f, -0.0348370404f, 0.0365752007f, 0.0161400209f, -0.0432186928f},
  {-0.0804296645f, -0.0691503044f, -0.0802311816f, 0.1888237989f, -0.1554943433f, -0.0010964666f, 0.0271373057f},
  {-0.1382055943f, -0.0118055509f, 0.0141395866f, 0.1148607431f, 0.0342926157f, 0.1069929332f, -0.1027639811f},
  {0.0067136312f, -0.0596436833f, 0.1059164529f, 0.0289871040f, -0.1946159542f, 0.1096084972f, 0.0791417759f},
  {0.1191326244f, 0.0627933350f, -0.1223738289f, -0.0497475869f, 0.1044408141f, -0.0105613861f, 0.0417004346f},
  {-0.0156005967f, -0.0375755473f, 0.0705413113f, 0.0392120081f, -0.0731114138f, -0.1146728071f, 0.1142296223f},
  {-0.1175894014f, 0.1629988587f, 0.0850928433f, 0.1574550850f, 0.0756295266f, -0.1490443735f, -0.0174173142f},
  {0.0288148157f, -0.0295572054f, 0.0412176786f, -0.2150823624f, 0.1473973883f, -0.0384558276f, 0.0342540657f},
  {0.1215155225f, -0.0192451007f, -0.1304925695f, 0.0870929619f, -0.0761508599f, 0.1406957360f, -0.0793463493f},
  {0.2221557590f, -0.0437364651f, 0.0584677625f, 0.1132303507f, 0.1392680950f, -0.0356114042f, 0.1189313510f},
  {0.0017483489f, 0.0238285210f, 0.0536022674f, 0.0886995628f, -0.0528278357f, -0.0647166360f, -0.0533958046f},
  {0.0171843786f, 0.1393437843f, -0.0264379911f, -0.1639221777f, -0.0931716219f, 0.0488626653f, 0.1365892606f},
  {0.1163504754f, -0.1382713787f, 0.0764283877f, -0.1405143435f, -0.1134319521f, 0.0806674331f, -0.1000773382f},
  {-0.0395379897f, 0.0043035084f, 0.0256072619f, 0.0920382826f, 0.0482242380f, -0.1291117408f, -0.0508769889f},
  {-0.1176860948f, -0.1247479347f, 0.0167469435f, 0.1545029234f, 0.0331877898f, -0.0675551337f, -0.1763263990f},
  {-0.0888849186f, 0.0415767504f, -0.0856729429f, 0.0424777495f, -0.0607079798f, 0.0182266763f, 0.0821293550f},
  {0.0152412012f, -0.0191149492f, -0.0326222018f, 0.1487384663f, -0.1603712533f, 0.0321992167f, 0.0492126518f},
  {-0.0857528025f, -0.1155985233f, 0.0446860784f, -0.1031682394f, 0.0629796775f, 0.0477778029f, -0.0279943321f},
  {-0.1670410015f, -0.1376424953f, -0.0810773199f, -0.1345040131f, -0.0636205721f, 0.0945232596f, -0.0387149329f},
  {0.0185341010f, -0.0631252652f, 0.2034694708f, -0.1030283422f, -0.1107392741f, 0.2220804603f, -0.0411380375f},
  {-0.1948202683f, 0.0031351530f, -0.0648463465f, -0.1870546204f, 0.0996780620f, 0.0674747147f, -0.1750419861f},
  {0.0496053809f, -0.0489169306f, 0.1438363104f, -0.0171447596f, -0.0342169250f, 0.1184131574f, 0.1217259885f},
  {-0.0051731570f, -0.1566322093f, -0.0191474041f, 0.0946079080f, -0.0523417489f, -0.0593029120f, -0.0145789567f},
  {-0.0142038111f, -0.2109280785f, 0.0568460696f, 0.0168038192f, 0.0735506776f, -0.0003953038f, 0.0701108075f},
  {0.0250324390f, -0.1753258542f, 0.0356486477f, -0.0587535141f, 0.0583131735f, -0.0000937660f, -0.0652275095f},
  {0.0487499291f, -0.0188100944f, 0.0582884700f, -0.0742730117f, -0.0841989085f, 0.0753429091f, -0.1167329035f},
  {-0.1258217489f, 0.1819702594f, 0.0701334159f, -0.0052828523f, 0.0477288154f, -0.0911532654f, -0.0781396251f},
  {-0.0741777241f, 0.1898416801f, 0.2356302965f, -0.0995852649f, -0.0422670926f, -0.2462997784f, -0.0680039834f},
  {-0.1222504152f, -0.1433359891f, 0.0976013472f, 0.1082922041f, 0.0483901880f, -0.0161640322f, -0.1055007348f},
  {0.1775947167f, 0.0691598700f, 0.0740348065f, 0.0604410101f, -0.0794400379f, -0.0024696893f, 0.1057217656f},
  {-0.0293905665f, 0.0515816645f, -0.1159925115f, -0.0434141319f, -0.0791494384f, -0.0190964918f, 0.0174095958f},
  {0.0876800446f, -0.1849335053f, 0.1295129682f, -0.1663898420f, -0.0820016095f, 0.0665167175f, -0.0211018605f},
  {0.0008576907f, -0.1558120616f, -0.0955292377f, -0.0511623567f, 0.0192555833f, -0.1097548651f, -0.1081126560f},
  {-0.0935864182f, -0.0106637327f, 0.1209857353f, 0.1318415503f, 0.0604507059f, -0.0109321050f, -0.0524511914f},
  {-0.0452221574f, 0.1077394510f, -0.1082792246f, 0.0409497997f, -0.0849579422f, 0.0830991478f, 0.1690223089f},
  {-0.0067184524f, -0.0236147933f, 0.0158267481f, -0.0689785362f, -0.0729099790f, -0.0097314586f, -0.0309751763f},
  {-0.0187832630f, 0.1450601890f, -0.0085123450f, 0.2051311965f, 0.0397493711f, -0.0095637098f, -0.0716626918f},
  {0.0224490821f, -0.0916191764f, 0.1645046428f, 0.0696366951f, -0.0508227420f, 0.0809916991f, 0.0243587013f},
  {0.0361259259f, -0.0434126481f, 0.0231406299f, 0.0388509694f, -0.1266091237f, -0.1255567518f, -0.1138581969f},
  {0.0786370598f, -0.1337476357f, 0.0732482022f, 0.0061111378f, -0.1091625287f, 0.0899905351f, -0.1720453558f},
  {-0.0391551985f, -0.0935475139f, 0.2320211643f, -0.0443696462f, 0.0670619181f, 0.1991866793f, -0.0176157419f},
  {0.0011139799f, 0.0209215900f, 0.1001044402f, 0.1247575088f, 0.1979768231f, -0.0738473907f, -0.0211751755f},
  {0.0694357644f, -0.1856873101f, 0.1153947349f, 0.1268183412f, 0.0076389945f, 0.0797622022f, -0.0111329879f},
  {0.0654852091f, 0.0759088157f, 0.0420769774f, 0.1395033837f, 0.0649514967f, 0.1391745784f, -0.1514234094f},
  {-0.0564012370f, -0.0744940141f, -0.1203111573f, -0.0595678115f, 0.0568263197f, 0.0078125468f, -0.0277127466f},
  {0.0062746900f, -0.0653352037f, -0.0292130723f, 0.0867470320f, -0.0030213709f, 0.1035352627f, -0.0911246114f},
  {0.0679224633f, -0.0371638874f, -0.1446215628f, 0.2109869554f, 0.1468525850f, 0.2225137624f, -0.0032521658f},
  {0.1682409207f, -0.1400056677f, -0.1549672132f, 0.1437482261f, -0.0549955012f, 0.0571133448f, 0.0807857393f},
  {-0.0495707005f, -0.0940989903f, -0.0605970913f, -0.1298699720f, 0.1191003044f, 0.0376364561f, 0.1137114261f},
  {-0.1240574630f, -0.2454673929f, -0.1552125630f, -0.1028685613f, 0.1440591758f, 0.1015951286f, -0.0774396954f},
  {-0.1291588817f, -0.0811473174f, -0.1357479145f, -0.0523379175f, 0.1082390243f, 0.0222306273f, 0.0256046643f},
  {0.1140604093f, -0.0291604322f, -0.0239501028f, -0.0210432877f, 0.0907631967f, -0.0247693962f, -0.1751301835f},
  {-0.0749977695f, -0.1434176637f, -0.0089020810f, 0.0125562393f, 0.1555654492f, 0.0070474170f, -0.3179361308f},
  {-0.1441875563f, 0.0372974950f, 0.2110191598f, 0.0518721292f, 0.1109373650f, 0.0727593390f, -0.1089618639f},
  {-0.0855077099f, -0.0652101575f, 0.0922313862f, 0.1116140514f, 0.1522650280f, -0.0684794829f, -0.1711203821f},
  {-0.0315017076f, 0.0656019022f, -0.0689811784f, 0.1534350799f, 0.2086518413f, 0.0694520005f, -0.3540350485f},
  {-0.0660876391f, -0.1042489525f, -0.0277931035f, 0.0652166219f, 0.1156854739f, 0.0716065056f, -0.3916800324f},
  {-0.0415683549f, 0.1886892018f, -0.0123124204f, 0.0254927106f, 0.1717261440f, -0.1023954039f, -0.0935095125f},
  {-0.2981667522f, 0.0329889226f, -0.1003082587f, -0.1543142092f, 0.1149940175f, 0.1530662424f, -0.1027789121f},
  {0.1254464656f, -0.0539023640f, 0.0446827368f, 0.3140283066f, 0.0446603267f, 0.1896468401f, 0.0679404534f},
  {0.0427842425f, 0.0154551046f, -0.0538574205f, 0.0511856422f, -0.1121943916f, -0.0261885694f, -0.0187906401f},
  {-0.0198271116f, 0.1063002580f, 0.1236819076f, 0.0105315548f, 0.0157597033f, 0.0851664382f, -0.0032965544f},
  {0.0602565039f, -0.1089366164f, -0.0736083893f, -0.1320901608f, 0.0457453767f, 0.1427740935f, 0.1111837663f},
  {0.0714467647f, 0.0821360663f, -0.0602281892f, -0.2174577948f, 0.1881714313f, 0.0885989062f, 0.0317412249f},
  {0.0411556384f, -0.0217419776f, -0.2360460994f, -0.0741752343f, 0.0928917696f, 0.1621190401f, -0.0271326609f},
  {0.0482959326f, 0.0440863294f, -0.1089213623f, 0.0737136291f, 0.0194694419f, 0.1287965195f, 0.1928569151f},
  {-0.0200787351f, -0.0388278049f, 0.1121400367f, 0.1852378442f, 0.0943508445f, 0.0420855449f, -0.0029998754f},
  {-0.0010503676f, -0.0207179489f, -0.1390647466f, -0.0097562096f, -0.1636722185f, 0.0451944059f, 0.0251748179f},
  {0.0915928158f, 0.0897665664f, -0.0800841677f, 0.1594570605f, -0.0938505665f, -0.0067193481f, 0.1655862444f},
  {0.0924995428f, 0.0383795705f, 0.0738859465f, -0.0803723221f, -0.0413262795f, 0.1216592672f, 0.0535879684f},
  {0.0362968959f, 0.0173056166f, 0.0522189796f, 0.0182748310f, -0.0593691172f, 0.2502141813f, -0.0914430748f},
  {-0.1103032749f, -0.1781922277f, -0.0335473128f, -0.1538159317f, 0.0760129817f, 0.1051632772f, -0.0959834247f},
  {-0.1099729728f, -0.0582032031f, -0.2482397490f, 0.1002769139f, 0.1797479266f, -0.0372487659f, 0.1746891441f},
  {-0.0692407353f, -0.0568584137f, -0.2395481292f, -0.0683902195f, -0.0641362607f, -0.0132977929f, 0.1750860965f},
  {0.0157728962f, -0.1858858809f, -0.2524415129f, -0.0489837801f, 0.0560873747f, 0.1759440467f, 0.0748188388f},
  {0.0101206803f, -0.1643359060f, -0.2795006166f, 0.1651585673f, -0.0614969615f, 0.2225557730f, 0.1537131526f},
  {-0.0514840230f, -0.2124595864f, -0.3052894343f, 0.0083690790f, 0.0862083043f, 0.2020927325f, 0.2134175763f},
  {0.2794191200f, -0.4851267385f, -0.2312529114f, -0.0254746374f, 0.0794838382f, 0.2234227020f, 0.0815150215f},
  {0.0329657605f, -0.2761685287f, -0.0054966563f, 0.0181270871f, 0.0006974301f, 0.0940145374f, 0.2312860128f},
  {-0.0065071805f, -0.1856759828f, -0.2436119760f, -0.0871399476f, 0.0303502543f, 0.2352940325f, 0.0557477764f},
  {0.0426674854f, -0.0593129661f, -0.0530872901f, 0.1082156818f, -0.0253936428f, 0.0451408146f, -0.1193854831f},
  {-0.0222593268f, -0.1084500945f, -0.1077059539f, 0.1144180708f, -0.0458640696f, 0.1786538794f, -0.1391223359f},
  {0.0878643251f, -0.0875099477f, 0.0131825905f, 0.0274131778f, 0.0920034237f, 0.0456141188f, -0.1649473631f},
  {0.0887515398f, -0.0870134772f, -0.0598418025f, 0.0333284613f, -0.1775625692f, -0.2396760093f, -0.2493546896f},
  {-0.0353844634f, 0.0456192447f, 0.1793705179f, -0.0274713201f, 0.2066681646f, 0.2168812712f, -0.1297997297f},
  {0.0845062469f, 0.1532547962f, 0.1882299021f, -0.0795552133f, 0.1508020255f, 0.1909220499f, -0.1699031268f},
  {0.0129846674f, -0.0982417811f, 0.1788264535f, -0.0677821811f, -0.1491810344f, 0.1038947930f, -0.0862520466f},
  {0.0518173139f, 0.1660172622f, 0.1111704009f, -0.0082170521f, -0.0095854200f, 0.0944676962f, -0.0735275633f},
  {0.0294176022f, 0.1266154296f, -0.1173880720f, -0.0003272718f, -0.1399349075f, 0.1272074699f, -0.1029598756f},
  {-0.0292856414f, 0.0455089879f, -0.0424537609f, 0.1398811006f, 0.1395304305f, 0.0881169343f, -0.0043645101f},
  {-0.0133948726f, -0.0811609900f, -0.0397178053f, -0.1238174693f, -0.1824272050f, 0.0425154309f, 0.1415533025f},
  {-0.1185583899f, -0.0694679072f, 0.0755982847f, -0.0776598268f, -0.0228205605f, 0.2274364652f, 0.2208520362f},
  {-0.0946694592f, 0.0775388407f, -0.0818547987f, -0.0291300134f, 0.0789882508f, -0.1355277404f, -0.0525505166f},
  {-0.1181390492f, -0.1510617842f, -0.0262171297f, 0.1110146604f, -0.0098195713f, 0.0853560858f, -0.0213189402f},
  {0.0991627352f, 0.0327980014f, 0.0413468206f, 0.0149601440f, -0.1736504962f, 0.0063320446f, -0.0238403942f},
  {0.1237742017f, 0.0740710385f, -0.0953956168f, -0.0103268229f, -0.1672940487f, 0.1240589322f, -0.1351384350f},
  {-0.0259029700f, 0.0627369798f, 0.0537835085f, 0.0101565462f, 0.0123533371f, 0.1180106011f, -0.0386021284f},
  {0.1445660258f, 0.1011161534f, -0.0213059411f, -0.0319021271f, -0.0394183928f, 0.0544924536f, 0.1514978297f},
  {-0.0041976682f, -0.0270493637f, -0.2561354108f, 0.0223897693f, -0.0818464461f, -0.0822327795f, 0.0107956455f},
  {-0.0484646894f, -0.0155823941f, -0.1865304329f, 0.2658694883f, 0.1086022578f, -0.0762368181f, 0.0986091678f},
  {-0.1214678461f, 0.0146315695f, -0.1971178024f, 0.0802712967f, -0.1144601433f, 0.1570161965f, 0.0609435959f},
  {0.0328997864f, -0.2038849946f, -0.2283005337f, 0.1148143734f, 0.0528509065f, 0.0930916187f, 0.1842769057f},
  {-0.0445984547f, -0.2954742327f, -0.2110217369f, 0.0182829180f, 0.0352331653f, 0.2709695645f, 0.1955455293f},
  {-0.1302117614f, -0.1906734431f, -0.3882798446f, 0.0502826144f, -0.0640613483f, 0.0869719996f, 0.2492634837f},
  {-0.1137695662f, -0.1708700107f, -0.0201747451f, -0.1149093752f, -0.0315195218f, 0.2825444952f, 0.3279169531f},
  {-0.0440928759f, -0.2043653581f, -0.2519284290f, 0.0479011568f, 0.0694649493f, 0.1755380776f, 0.3687465351f},
  {-0.2630995355f, -0.0364048659f, -0.2993357437f, 0.0488477401f, 0.0325163278f, 0.5148114594f, 0.3046104219f},
  {-0.1332895544f, -0.3186475971f, -0.1937473471f, 0.0136604845f, 0.0846531017f, 0.3495815920f, 0.2409480432f},
  {-0.2632386770f, -0.2096677718f, -0.2367158169f, 0.0193235874f, 0.0666038441f, 0.1869800661f, -0.0506522353f},
  {0.0424849972f, -0.2398064879f, 0.0326733873f, 0.0510819192f, 0.0020421598f, 0.1429150848f, 0.1833621468f},
  {-0.0425509251f, -0.0696760666f, -0.0356679374f, -0.1115075582f, 0.1044480200f, 0.0154711638f, -0.0435497661f},
  {-0.0237657151f, -0.0119744823f, -0.0355289890f, -0.0564064728f, 0.0829436733f, -0.0089593004f, 0.1310665686f},
  {0.0965065212f, -0.0590747955f, 0.1285754890f, -0.2418924608f, -0.0687382199f, 0.0248704674f, -0.1125138618f},
  {0.1332835553f, 0.0092965787f, 0.1207117226f, -0.0942024011f, 0.0987945794f, -0.1486407204f, 0.0067687554f},
  {0.1799298879f, 0.0155958468f, 0.2044518069f, 0.0548930515f, 0.0739469326f, 0.0434019872f, -0.0697691118f},
  {0.0122740503f, 0.1646779965f, 0.2035197289f, -0.0276979648f, -0.0363661581f, -0.0583510247f, 0.2035157776f},
  {0.1425149544f, -0.0960691976f, -0.0599465624f, 0.0221202346f, 0.1020312728f, -0.0462700005f, 0.1120641136f},
  {0.1151210979f, -0.0424159685f, 0.0516060110f, 0.1831091802f, -0.0368173214f, -0.0247337768f, -0.0219291083f},
  {-0.0770726259f, -0.0365558657f, 0.0971522541f, -0.1494418658f, -0.1537319770f, -0.1057524974f, 0.0057975702f},
  {0.1676216816f, -0.0219587190f, 0.0660449142f, 0.1858781644f, -0.0339064889f, 0.0967653967f, 0.0772895616f},
  {0.0247045962f, 0.0187820566f, 0.0664402205f, 0.0693760717f, 0.0923575850f, -0.1621481000f, -0.0967758554f},
  {0.1505400346f, 0.0125235131f, -0.0241336223f, -0.0688812461f, 0.1247595527f, -0.0371743813f, 0.0550533094f},
  {-0.1021380220f, 0.2260230680f, 0.1309653306f, -0.0744379859f, 0.0323839125f, -0.0853148185f, -0.0350494902f},
  {0.1821465786f, -0.0493817928f, -0.1348343996f, 0.0692677267f, 0.0622504418f, 0.0700399198f, 0.1452635269f},
  {0.0355111500f, 0.0233444185f, 0.1042284616f, -0.0230063078f, -0.0892581434f, -0.1586014463f, 0.1407846098f},
  {0.1250110009f, -0.1369846373f, -0.2533605708f, -0.0492570152f, -0.0077591037f, 0.0020846448f, 0.0352090013f},
  {0.0179843642f, 0.1435562939f, -0.0661959269f, 0.0402624395f, 0.0327172789f, 0.0797264364f, 0.1009189025f},
  {-0.0381108774f, -0.2858231115f, -0.1931339767f, 0.0930160506f, -0.0489053303f, 0.0464334088f, 0.0221315068f},
  {-0.1195435835f, -0.0354776293f, -0.0652803525f, 0.3385423242f, 0.0116285795f, -0.0398368630f, 0.1916524486f},
  {0.0472915203f, -0.1342387414f, -0.0733240517f, 0.1907818371f, -0.0137601498f, 0.0706168441f, 0.2157355232f},
  {-0.1111899930f, -0.0629675927f, -0.1567765873f, 0.2511839770f, -0.0061694242f, 0.1340830984f, 0.1933751286f},
  {0.0619111213f, 0.0157779179f, -0.2099053004f, 0.2098143046f, -0.1107664857f, 0.1047647856f, 0.0778996055f},
  {-0.1768533790f, -0.0883960451f, -0.1553210559f, 0.0533208464f, -0.0871446258f, 0.0601960910f, 0.2996047725f},
  {-0.1445643116f, -0.1512843013f, -0.1069226851f, 0.1215634758f, -0.1231315623f, -0.0089923443f, 0.2724432045f},
  {-0.0618670220f, -0.2332120595f, -0.1310928562f, 0.2372722759f, -0.1148753768f, -0.0822616903f, 0.3922881770f},
  {-0.0168409756f, -0.0221525505f, -0.0651814648f, 0.3072241904f, -0.1586698797f, -0.1111673757f, 0.4092533979f},
  {-0.0768992435f, 0.1152489127f, 0.0456934980f, 0.1915426175f, -0.0725398498f, 0.0641941865f, 0.2450397410f},
  {-0.1013359848f, -0.1026941440f, 0.0247625821f, 0.1669106869f, -0.0339602186f, 0.1414629967f, 0.2360566649f},
  {0.0376545723f, -0.0805802755f, 0.0732833928f, -0.1699891606f, -0.1111749416f, 0.1469975993f, 0.0851183520f},
  {0.0191339909f, -0.0760729817f, -0.0542025813f, 0.0283085887f, 0.0500291119f, 0.0594408733f, 0.1793176156f},
  {0.2198670050f, -0.0897195914f, 0.1038408140f, -0.1006771362f, -0.1055916634f, 0.0030665589f, 0.0760434051f},
  {0.1182522800f, 0.0756584264f, 0.2213612358f, -0.1474500416f, -0.2035851601f, 0.0557324616f, 0.1106753770f},
  {0.2498875657f, -0.0123931465f, 0.2068330767f, 0.0273462840f, -0.0925509877f, 0.0328734650f, -0.0997775879f},
  {0.0962389683f, -0.0028175692f, 0.0935039546f, 0.1576323625f, -0.2448068781f, -0.0009081397f, 0.0945617323f},
  {0.1475491700f, 0.1103742875f, 0.0348534235f, 0.0377819030f, 0.0694924455f, 0.2242529765f, 0.1891542707f},
  {0.1122983055f, 0.1004457218f, -0.1782162641f, 0.1694096618f, 0.1328617702f, 0.1143449584f, 0.1247003278f},
  {-0.1038944715f, -0.0009220410f, -0.0161193749f, -0.0816744549f, -0.0436304711f, 0.0832213528f, 0.0784317201f},
  {-0.0670724892f, -0.0916594157f, -0.0211284859f, -0.0717165811f, -0.1746338872f, -0.0543602693f, 0.1224913022f},
  {0.1373450210f, -0.0899267849f, -0.2311391646f, 0.1719162759f, 0.0649871668f, -0.1752637778f, -0.0859822271f},
  {-0.0910256372f, -0.0641032304f, 0.0458408140f, -0.0279398029f, 0.1377531901f, -0.0759002126f, -0.0361778253f},
  {-0.1009839433f, -0.1684474556f, 0.0826215640f, -0.0128936116f, 0.0674302162f, -0.0540403530f, -0.0072811721f},
  {0.0734829890f, 0.0839082685f, -0.2270801837f, 0.0323965014f, 0.0198073899f, 0.0889080929f, -0.1522762475f},
  {0.0989910238f, -0.0347232486f, -0.0574403431f, 0.0569432364f, -0.0449518925f, 0.0130272712f, 0.1055928123f},
  {-0.0181450514f, 0.0096140727f, -0.0349786827f, 0.1121981109f, -0.0110006956f, 0.0740901657f, 0.1922152684f},
  {0.0357615891f, -0.1127570535f, -0.2717585096f, 0.1333965257f, 0.1174168861f, 0.2138242702f, -0.0780391907f},
  {0.0519136862f, -0.0066249643f, -0.0331189512f, 0.1734410694f, 0.0208682544f, -0.1588941919f, 0.0961515941f},
  {0.0713457547f, 0.0818124687f, -0.0960399073f, 0.1920644395f, -0.1533661182f, 0.0335612729f, 0.0100900416f},
  {-0.0120021334f, 0.1171384561f, -0.0396137366f, 0.2717603645f, -0.0525672135f, 0.0275335821f, 0.2504934074f},
  {0.0298457775f, 0.0396050359f, 0.0580812381f, 0.0829184462f, -0.0855505043f, 0.0905734661f, 0.2239361501f},
  {0.1042648212f, 0.0527317948f, 0.0615011675f, 0.2689972456f, -0.0407013052f, -0.0646827086f, 0.3356659572f},
  {0.1092714639f, -0.0468829098f, -0.0236612878f, 0.0795851201f, -0.2822398565f, -0.1098321941f, 0.2221048716f},
  {0.2235572464f, -0.0229072141f, 0.0717789106f, 0.2290971685f, -0.1257991382f, -0.1275508749f, 0.2249300641f},
  {-0.0256106315f, 0.0021842090f, 0.0509993887f, 0.3311177212f, -0.0975452849f, -0.0768708672f, 0.1741756445f},
  {0.0755307168f, 0.0717211063f, 0.0026047336f, 0.2441285241f, -0.0993311947f, -0.0819878993f, 0.1337697531f},
  {0.0595886607f, 0.0525315781f, 0.0897548438f, 0.0736612745f, -0.2064268248f, -0.0819419900f, 0.3662533720f},
  {0.2475468340f, -0.1047392049f, 0.1175068774f, 0.0808081108f, -0.0949604701f, -0.1170693491f, 0.2161718453f},
  {0.1456824078f, -0.1401488412f, -0.1492070583f, -0.0459415107f, -0.0792338274f, -0.0149193316f, 0.1338282624f},
  {0.1079287291f, 0.1044178255f, 0.0251772556f, -0.0135157629f, -0.1387370504f, -0.0192266571f, 0.2886639136f},
  {0.0924746452f, -0.1132348196f, -0.1090393814f, 0.1181236908f, -0.1028512136f, 0.1424626436f, -0.1232414386f},
  {0.0162691454f, -0.0022141871f, 0.1499914977f, 0.0583539268f, -0.2802742818f, 0.1160559145f, 0.0885378927f},
  {0.2087438142f, -0.0094724798f, 0.0630330524f, -0.0927282478f, -0.2521044725f, -0.0279286414f, -0.0266584926f},
  {0.2562291067f, -0.1239879539f, 0.0625428036f, 0.1230899324f, -0.1492748095f, 0.2167354440f, 0.0699342746f},
  {0.0797800824f, -0.0802795623f, -0.0755856778f, 0.1958815048f, -0.2754896940f, -0.0993966907f, 0.1086323016f},
  {0.0858006834f, 0.0151164921f, 0.0069166725f, 0.0245247853f, 0.1202778791f, 0.0858343562f, 0.1802161141f},
  {0.1497229467f, -0.1216534501f, 0.0153373124f, -0.1524193034f, -0.0332721401f, 0.0868569196f, 0.0911093914f},
  {-0.1919051353f, 0.0146086241f, 0.1352025826f, 0.0329708450f, -0.2315842285f, -0.1526619607f, -0.0673578529f},
  {0.0253598952f, 0.0583022415f, -0.1558723437f, 0.0805471499f, -0.0273544094f, 0.2487866190f, -0.0357032120f},
  {0.0953117336f, 0.0563445636f, -0.1115299992f, 0.0451375307f, -0.0075466281f, -0.0484541424f, 0.0692357641f},
  {0.0731253847f, 0.2198110093f, 0.1414756605f, 0.0083599800f, -0.0809955486f, 0.0326175813f, 0.1434943475f},
  {-0.0225272329f, -0.0894944429f, -0.2780305506f, 0.0309581637f, -0.0034298194f, 0.0296872394f, 0.1124965729f},
  {0.0335766205f, 0.0480828981f, -0.3055789274f, 0.1586483370f, 0.0470607155f, 0.0202622357f, 0.0459465828f},
  {0.1787711444f, 0.0434104866f, -0.2319557285f, -0.0698747462f, -0.0473380851f, 0.0322265867f, 0.2444361467f},
  {0.0588041058f, 0.0220145195f, 0.0569693245f, 0.1719375282f, 0.0301107248f, -0.0422509982f, 0.0965014001f},
  {0.0659385171f, 0.0106562413f, -0.0123387032f, 0.3576517102f, 0.0270684498f, 0.0178599090f, 0.0607901144f},
  {0.1837434514f, 0.0813431218f, -0.0342862250f, 0.1529487965f, 0.0855059625f, 0.0226600527f, 0.0524414678f},
  {-0.0265549156f, -0.1059331876f, -0.0789958002f, 0.2302632933f, -0.0997509403f, -0.0404511618f, 0.0553400018f},
  {0.0068986761f, -0.0623869906f, -0.0949321413f, 0.3596959954f, 0.0228267433f, -0.1025346160f, 0.1544144225f},
  {0.1678693873f, 0.0505828142f, -0.0490878304f, 0.1001772105f, -0.0045798598f, -0.0497971210f, 0.1200128511f},
  {0.0678677068f, -0.1113211450f, -0.0925029638f, 0.2905593763f, -0.0419177357f, -0.1770644637f, 0.2875672760f},
  {-0.0243524693f, -0.0510655087f, -0.2272163356f, 0.0334976486f, 0.0536478175f, -0.0517631187f, 0.4583938089f},
  {0.0404231210f, 0.0221672825f, -0.0692180369f, 0.0001145713f, -0.0505490237f, -0.1148105905f, 0.3282321141f},
  {-0.1058874273f, -0.0722257192f, 0.0207774119f, 0.0364561041f, -0.1856035219f, -0.1725934299f, 0.3397205088f},
  {0.0554524852f, 0.0991150371f, -0.0237417805f, 0.0751702872f, -0.1720631099f, -0.0786984774f, 0.3287679524f},
  {-0.0021955081f, 0.0113960262f, 0.0232851102f, 0.1173037636f, -0.1401425060f, 0.0098696574f, 0.3491560747f},
  {0.0097086472f, -0.0124402726f, -0.0553386875f, 0.1737716944f, -0.1155260385f, -0.0559141448f, 0.2748080494f},
  {0.1270030249f, -0.1594044696f, -0.1194987995f, 0.0954080239f, -0.2727069927f, -0.1045581153f, 0.1987110485f},
  {-0.0026640066f, -0.1826730891f, 0.0295731367f, 0.1528341112f, -0.1500304664f, 0.0640559397f, 0.2557978778f},
  {0.1688688793f, -0.0580169718f, -0.0427897608f, 0.1919506084f, -0.1716833564f, 0.3058896907f, 0.2379182181f},
  {0.1032654857f, 0.0348578200f, 0.2120598821f, 0.1908890083f, -0.2886206321f, 0.2125237693f, 0.2771234385f},
  {0.3552723812f, 0.0707195625f, 0.0620040202f, 0.1835932159f, -0.1032577684f, 0.1176941273f, 0.1569138539f},
  {0.3632870870f, -0.0439722900f, 0.0825297959f, 0.0173049610f, -0.3638161129f, 0.0105868778f, 0.3180893633f},
  {-0.0335462445f, -0.0369499866f, 0.0717575959f, -0.0660812331f, 0.0902384721f, 0.0171039213f, 0.0074755243f},
  {-0.1435939650f, 0.0460677966f, -0.0947372736f, 0.0911852197f, -0.0624920515f, 0.0422850214f, -0.0414628477f},
  {0.1695377950f, 0.0137919456f, 0.1209430432f, 0.1991244141f, -0.0443699638f, -0.0757708720f, -0.0458515225f},
  {-0.0475612343f, -0.0609800283f, -0.0552275166f, 0.1499185252f, 0.0170802387f, -0.0175342741f, -0.0783313583f},
  {0.0011803473f, 0.1509725485f, -0.0353753213f, 0.0903026505f, 0.1124742825f, -0.0044321849f, -0.0942545318f},
  {-0.0034033690f, -0.2019253199f, -0.0544313587f, -0.0099342858f, -0.0462352422f, -0.1116485547f, 0.2083271745f},
  {0.1537195713f, 0.0296362106f, -0.1459933092f, 0.1320016303f, -0.0674149374f, 0.0225085474f, 0.2169827966f},
  {-0.0021121961f, 0.1806941006f, -0.4845981127f, 0.0555548780f, -0.1766987403f, -0.0058512092f, 0.0426544765f},
  {-0.1561963138f, -0.0404432437f, -0.0660911888f, 0.2314015350f, -0.1716227556f, -0.1501017416f, 0.1073597023f},
  {0.0147489474f, -0.1360671158f, 0.0409773041f, 0.1322605807f, -0.1586397683f, 0.1941508324f, -0.1636597042f},
  {0.2977735287f, 0.1008263118f, 0.0638489829f, 0.0939234445f, 0.1460017664f, 0.0388973248f, -0.0233390624f},
  {0.0271298495f, 0.1760769315f, 0.1104967778f, 0.1711746546f, -0.0407939521f, -0.1229290319f, 0.2016819186f},
  {0.1016996641f, 0.1550088261f, 0.1099697753f, 0.1932515364f, -0.0065861320f, -0.1017928798f, 0.0262657089f},
  {0.1631459374f, -0.0190912332f, 0.0030915690f, 0.3115464008f, -0.1111550421f, -0.1673979454f, 0.3333299637f},
  {0.0247520754f, 0.1544888628f, -0.0944456089f, 0.0758099280f, 0.0613302302f, 0.0764091084f, 0.1526096818f},
  {0.0448395903f, -0.1337353444f, -0.0530488113f, 0.0403890286f, -0.0511631712f, -0.1568557802f, 0.1189068895f},
  {-0.0718114968f, -0.0250379416f, -0.3154037274f, -0.2001336477f, -0.0089419847f, -0.2102656602f, 0.2199894025f},
  {0.0382217632f, 0.0436898341f, -0.2514304035f, -0.1504683874f, -0.0462481334f, 0.0088761458f, 0.2870907480f},
  {-0.0473488432f, 0.1144161438f, -0.2053963415f, -0.0491221709f, 0.0301658294f, -0.1281615749f, 0.3128043101f},
  {0.0195930820f, 0.0203005061f, 0.0184398806f, -0.0351249827f, -0.2170750540f, -0.1524806747f, 0.3248653431f},
  {0.0629017827f, 0.1531391117f, -0.2685385898f, -0.0240665957f, -0.1576636610f, -0.0894390454f, 0.1690554803f},
  {-0.0343664813f, -0.1297314081f, -0.0749023522f, 0.2395561309f, -0.2650284401f, -0.1060585789f, 0.2113506679f},
  {-0.0182486440f, 0.0513821666f, -0.0492340437f, 0.1988013118f, -0.1783919672f, -0.0409946867f, 0.1500746089f},
  {0.1112158898f, 0.1294555851f, -0.1246594789f, 0.1485910809f, -0.2760995407f, 0.0026227453f, 0.1474394173f},
  {0.0056455736f, -0.0507575292f, -0.1245451772f, 0.2344103698f, -0.2001724007f, 0.0154330448f, 0.1645992174f},
  {0.2313972944f, -0.1292293680f, -0.1499060622f, 0.1926187229f, -0.3136356129f, 0.2997110462f, 0.2273817512f},
  {0.2135868463f, -0.1458936570f, -0.0989660185f, -0.0489698776f, -0.2758742630f, 0.1727511130f, 0.2960953424f},
  {0.0323486909f, -0.0574724727f, -0.1898784127f, 0.0614428579f, -0.2159878544f, 0.1598484383f, 0.1932118045f},
  {0.1522713914f, 0.1189275609f, -0.0716283605f, 0.1451068736f, 0.0158754302f, -0.1568713729f, 0.0344607146f},
  {-0.0314078374f, -0.0356675673f, -0.1657800446f, -0.0420362434f, -0.0396562320f, -0.0959793755f, -0.1043850408f},
  {-0.1285894911f, -0.1026122117f, 0.1296612615f, -0.0663698103f, 0.2114088821f, -0.1254727178f, 0.0244671025f},
  {0.0708291614f, -0.0161531722f, 0.0220234946f, 0.0363756221f, 0.0766301489f, 0.2257945556f, -0.1622434867f},
  {0.1630944561f, -0.0611802348f, -0.0596478544f, -0.0454794090f, -0.0784091688f, 0.0921453392f, -0.2251237054f},
  {0.1653840815f, 0.0304163807f, -0.1143316576f, -0.1058141136f, -0.0594540940f, -0.1828952209f, 0.1573037191f},
  {-0.1075243540f, 0.0069683949f, -0.1931991817f, -0.0095547432f, 0.0548120930f, -0.0653018711f, -0.0140215287f},
  {0.1617201326f, -0.0493637487f, -0.0009321564f, 0.0125272855f, -0.0702233303f, -0.0458532617f, -0.0722538271f},
  {0.2574310199f, 0.0619579642f, -0.1088928018f, 0.0397557106f, 0.0309713370f, 0.0348526603f, 0.0080735583f},
  {0.1597171098f, -0.0504858917f, 0.0418399047f, 0.1448385013f, -0.1876266799f, -0.1171596420f, -0.0294336190f},
  {0.1382647637f, -0.0739242289f, 0.1294870600f, 0.2211286639f, -0.0788449376f, -0.0180921604f, 0.0402475054f},
  {0.1477633331f, -0.0244019764f, 0.1397522344f, 0.1393518290f, -0.1700670515f, 0.0140767001f, -0.0587085863f},
  {0.3755950109f, -0.0276729656f, 0.3736812758f, 0.2730559885f, 0.0300686824f, -0.0697556929f, 0.1025410800f},
  {0.1252625416f, 0.2471557625f, 0.1657706484f, 0.2142961323f, -0.1593136104f, -0.1811214113f, 0.0487539640f},
  {0.1105713600f, 0.1140339738f, 0.1730386042f, 0.1313968816f, -0.0990993189f, -0.0843818423f, 0.2640374435f},
  {-0.0185071381f, 0.0279228995f, 0.0228853043f, -0.0859614672f, -0.1733941614f, 0.0461298831f, 0.3038983697f},
  {0.2631229739f, -0.1435905542f, -0.2941005016f, -0.1269143238f, -0.0596515382f, 0.0645023760f, 0.2493678721f},
  {-0.1623478415f, 0.1071953035f, -0.3732726162f, -0.2976859585f, -0.0635590252f, -0.1562789393f, 0.1244663173f},
  {-0.0271003215f, 0.0909362251f, -0.3372616571f, -0.1019474329f, -0.2564589688f, -0.2168952038f, 0.3781510699f},
  {-0.1532271418f, 0.1547377440f, -0.3808150632f, -0.0586368223f, -0.1808287110f, -0.0753159236f, 0.1676975237f},
  {-0.0870601016f, 0.1513796980f, -0.0869705101f, 0.0076229654f, -0.0179169571f, -0.0212712148f, 0.1648847503f},
  {-0.1121598049f, 0.1889924791f, -0.1543685817f, 0.2285096793f, -0.2295831545f, 0.0113620576f, 0.0183572492f},
  {-0.0128871011f, 0.0343479653f, -0.2161469050f, 0.1171274927f, -0.1705767804f, 0.0179343561f, 0.2106192821f},
  {-0.0678561916f, 0.1087214746f, -0.2647337716f, 0.2799478621f, -0.1941934598f, -0.0144335290f, 0.1736377162f},
  {0.0366566763f, -0.1683758040f, -0.2075667260f, 0.1525258538f, -0.2487940079f, -0.0485038443f, 0.1439695598f},
  {0.2258257054f, -0.0947917558f, 0.0734344496f, 0.0482876421f, -0.2637307772f, 0.0285817188f, 0.3506544585f},
  {0.0328587173f, -0.2235605590f, -0.1223588645f, -0.0637244557f, -0.2634748217f, 0.0744580154f, 0.2823751221f},
  {0.0569946846f, -0.1482148481f, -0.2614651321f, 0.0734350076f, -0.0721058534f, -0.0002677460f, 0.0863380345f},
  {0.1517001536f, 0.0106925212f, -0.2156975981f, -0.0719716366f, -0.2187553402f, -0.0047962593f, 0.0053097058f},
  {-0.0048434015f, -0.1266968219f, 0.1689367887f, 0.0485300664f, 0.0145404488f, -0.1261383535f, -0.1799520589f},
  {-0.0389589324f, 0.0868712426f, -0.0130901380f, 0.0538382859f, -0.0666103518f, 0.0282089764f, 0.1916880468f},
  {-0.0125887763f, 0.2439659260f, 0.0920632661f, 0.0128089077f, 0.0981002569f, -0.2136117968f, 0.1060126129f},
  {-0.0091950409f, -0.0148383650f, -0.0681626390f, 0.0951509771f, 0.0096339448f, 0.0739772011f, -0.0356348712f},
  {-0.0009443441f, 0.0107710572f, -0.0225602793f, -0.0022093080f, -0.0125606629f, 0.1768137462f, -0.1190816606f},
  {0.2107395012f, 0.0970668554f, -0.0477869323f, 0.0915858819f, -0.0724441242f, -0.2378323699f, 0.1855769748f},
  {-0.0228623920f, 0.1270230886f, -0.2286466698f, 0.0643298797f, -0.1994306672f, -0.0260224011f, 0.0397578096f},
  {0.0355360114f, 0.1042911652f, -0.0265050514f, -0.0506788359f, -0.1443092646f, -0.0105097331f, 0.1362697099f},
  {0.2373312249f, 0.1030694559f, 0.1924908217f, 0.2400025650f, -0.2561367632f, 0.0996004785f, -0.0635709080f},
  {0.3334418069f, -0.0838048095f, 0.2654757522f, 0.1494686436f, -0.2456005761f, -0.0011008914f, -0.0254020091f},
  {0.2116831387f, 0.2385536542f, 0.2694826939f, 0.2782610644f, -0.1895158207f, 0.0076006820f, -0.0716618474f},
  {0.1839095869f, 0.0858757860f, 0.4338088027f, 0.2460439456f, -0.2645736425f, 0.0166681160f, -0.1702441471f},
  {0.2515429332f, 0.1260683626f, 0.4426225091f, 0.1530825025f, -0.2578295677f, -0.0999746170f, -0.0169063555f},
  {0.2167773672f, 0.0485551137f, 0.3756105686f, 0.1598427030f, -0.1287921490f, -0.0952116018f, -0.0454071207f},
  {0.0656523095f, -0.0158746020f, -0.0613607415f, -0.1115319865f, -0.2757218440f, 0.0799412584f, -0.0834301532f},
  {0.2900596663f, -0.2793534900f, -0.2330032108f, -0.4474934540f, -0.1948739064f, 0.2071721173f, 0.2108994793f},
  {0.3313950757f, 0.1000208114f, -0.4720042692f, -0.3549357289f, -0.1019733623f, -0.1555664689f, -0.0501718068f},
  {-0.0332911555f, 0.3792046127f, -0.0598145498f, -0.2152319125f, -0.1526636888f, -0.0443379394f, -0.2448732256f},
  {-0.0485246488f, 0.4862068243f, -0.2124765590f, -0.0235179806f, -0.2032751663f, -0.1079541574f, -0.0868164982f},
  {-0.1107358134f, 0.2742110929f, -0.3036825842f, 0.2862687244f, -0.2390715918f, -0.0102361571f, 0.1151289488f},
  {-0.1932480912f, 0.2435435990f, -0.3316641017f, -0.0967149250f, -0.0971799856f, -0.0336314021f, -0.0450558376f},
  {0.0655930403f, 0.2259858585f, -0.1894969454f, 0.1122744591f, -0.0311678002f, -0.0792240915f, 0.0992057443f},
  {-0.0146720592f, -0.0425727946f, -0.0966317064f, 0.0784956947f, -0.2104845393f, -0.0064202590f, 0.0860937196f},
  {0.0395329253f, -0.0403660238f, 0.0957278419f, 0.0428193148f, 0.0396078389f, -0.0093848513f, 0.2839038746f},
  {-0.1696513437f, -0.0554517364f, -0.1312599441f, -0.0412833897f, -0.0789218614f, 0.0428192007f, 0.0319787500f},
  {-0.0432069127f, -0.2468702125f, -0.0291226521f, -0.0105305572f, -0.3251119161f, 0.1535057086f, 0.1048101808f},
  {0.3297823405f, -0.0414724813f, 0.0381526784f, 0.0501194247f, 0.0334720023f, -0.0242482140f, 0.0288858634f},
  {0.0249390176f, -0.0091299726f, -0.0446428213f, -0.0118139456f, -0.1163567964f, 0.0832017372f, 0.0548227838f},
  {0.1546538395f, 0.0548328678f, 0.1939941828f, 0.1470690497f, 0.1166910159f, 0.0086660544f, -0.1040379987f},
  {0.0532239100f, -0.1439177698f, 0.0879150035f, -0.0492937051f, -0.0851079803f, -0.1037773182f, 0.0098985994f},
  {-0.0823836235f, -0.1440102472f, 0.0934815160f, -0.0656713729f, 0.1246466697f, 0.1063433815f, -0.0052988843f},
  {-0.1316877350f, 0.0747551068f, -0.0018889602f, -0.0473098252f, -0.0592026725f, 0.0757306912f, 0.1005777245f},
  {0.1727462396f, 0.0777409773f, -0.1336008048f, 0.0402575604f, -0.1565999193f, 0.0898778894f, 0.0441563048f},
  {-0.0264628663f, -0.1078634538f, 0.0822942843f, -0.0900829441f, -0.1658169357f, 0.0299021691f, 0.1049907049f},
  {-0.0968344508f, 0.1213911736f, -0.0950886691f, 0.0859157622f, -0.0355385478f, -0.0399252284f, -0.0468356692f},
  {0.1327834483f, 0.1643112587f, 0.3816503485f, -0.1267730392f, -0.2985621702f, -0.0715177928f, -0.0172404770f},
  {0.2495023152f, -0.0261570114f, 0.4058049313f, 0.0315613042f, -0.2650803700f, -0.1524100382f, -0.1236738286f},
  {0.1378187420f, 0.0452194259f, 0.2960717771f, 0.1185606340f, -0.2727201728f, -0.0912736900f, -0.1843764259f},
  {0.3504045483f, 0.1248829006f, 0.4890293390f, 0.1589587545f, -0.2640491720f, 0.0753452936f, -0.1208614671f},
  {0.1783863421f, 0.0675218554f, 0.2754107597f, 0.1221465206f, -0.1760117401f, -0.0181659476f, -0.2275819053f},
  {0.1724540483f, 0.0104753934f, 0.4115696918f, 0.2582034992f, -0.5409095828f, 0.0927500315f, -0.3994824786f},
  {0.1495397065f, 0.0132110274f, 0.5313823850f, 0.0739807738f, -0.5489751585f, 0.1344676730f, -0.3415889254f},
  {0.3637060148f, -0.0828294588f, 0.1297295740f, -0.1365142897f, -0.3958493928f, 0.3508476397f, -0.2186953607f},
  {0.4989360429f, -0.4130513633f, -0.3184398493f, -0.5356658225f, -0.0605438352f, 0.1080606921f, -0.0633748822f},
  {0.3253505150f, 0.1859844047f, -0.0319821400f, -0.2575118530f, 0.1226309763f, -0.1897512560f, -0.1873776317f},
  {0.3317795349f, 0.2565295735f, -0.1096780268f, -0.1733338105f, -0.1194253959f, -0.2786575412f, -0.4308674363f},
  {0.0963891209f, 0.1007978317f, -0.1227163574f, 0.0082199577f, -0.1560889724f, -0.2056765572f, -0.2009904667f},
  {0.0552448524f, 0.1795739138f, -0.0771610851f, 0.0826907692f, -0.0268831118f, -0.1358355141f, -0.1579509882f},
  {0.0225937851f, 0.0486218629f, -0.1059134589f, 0.1991332281f, 0.0459630123f, -0.0734311710f, -0.0947985059f},
  {0.0956363346f, -0.0543497356f, -0.1483806309f, 0.1367386871f, -0.1011877701f, 0.0078951873f, -0.0126309658f},
  {-0.0494752513f, 0.1070946753f, 0.1349296181f, -0.0963865595f, -0.1994831725f, -0.0203859089f, -0.0309627116f},
  {-0.0472569928f, -0.0279554132f, 0.1574947693f, 0.1039568260f, 0.0933457292f, 0.0837536746f, 0.1391151511f},
  {-0.0683690327f, -0.2136436667f, 0.2662531575f, 0.1321670719f, 0.0190783229f, 0.0432885149f, -0.0984255821f},
  {0.0893380326f, 0.0068780169f, -0.0540036830f, 0.0704895474f, 0.0551929763f, 0.0245674553f, -0.0174402117f},
  {0.0290390064f, -0.0977011556f, -0.1895970309f, 0.1037834608f, -0.0806713271f, 0.0710031165f, -0.0360063532f},
  {0.0769248833f, -0.0095771432f, 0.1178310112f, 0.0755254510f, 0.0430024224f, 0.1103728482f, 0.0477473199f},
  {-0.1025379662f, -0.0224969199f, 0.0753979913f, -0.1607263586f, 0.0613787114f, -0.0319347101f, -0.2322935475f},
  {-0.0583208520f, 0.0758695433f, -0.0502044781f, 0.0191394112f, -0.0200209442f, -0.0899829463f, 0.1218977958f},
  {-0.0173852886f, 0.0198136349f, 0.0900879600f, 0.0127758778f, 0.0355675119f, 0.0067383517f, 0.0433176613f},
  {-0.0307814635f, 0.0202954441f, -0.0420121760f, 0.0002266510f, -0.0545331479f, -0.1392075191f, -0.0034306571f},
  {0.1471585213f, 0.0433381879f, -0.1490606299f, -0.1782621090f, -0.1397927868f, 0.0444669289f, 0.1338095791f},
  {0.0743410306f, -0.0043854812f, 0.1049494005f, -0.1371061850f, -0.2608482102f, -0.0608355534f, 0.0827927829f},
  {-0.0251403584f, 0.1018585783f, 0.1190066420f, 0.0247670343f, -0.1630748869f, -0.1672968013f, -0.0219250412f},
  {-0.0527895314f, 0.0960170756f, 0.2769523902f, 0.0326756132f, -0.2036607302f, 0.0590503666f, -0.2051783284f},
  {0.0249287373f, 0.0165388601f, 0.1873644504f, 0.0920090685f, -0.2063197000f, -0.2236195859f, -0.2294072982f},
  {0.2233761052f, 0.0414826885f, 0.2185276009f, -0.0860537836f, -0.2586385199f, -0.1403447229f, -0.3067283386f},
  {0.2771268648f, -0.0069131120f, 0.2634058566f, 0.1604476049f, -0.2690068735f, 0.0094073631f, -0.2084855171f},
  {0.3894873504f, 0.1006040625f, 0.2426503758f, 0.1877045212f, -0.1205423250f, 0.1592378670f, -0.2701393975f},
  {0.3054028680f, 0.0613522376f, 0.4998338117f, 0.5250745833f, -0.1816380594f, 0.1904011007f, -0.3764298003f},
  {0.5785123565f, -0.2438897428f, 0.4323872706f, 0.3454659816f, -0.1557922171f, 0.2540369723f, -0.3849459031f},
  {0.5202997952f, -0.2913653333f, 0.0216492800f, -0.1298685297f, -0.0862108372f, 0.3400057699f, -0.1439628596f},
  {0.4919235280f, -0.1918642089f, -0.2417037162f, -0.4210484135f, 0.1877860648f, 0.2286762790f, -0.0917779122f},
  {0.5069707985f, 0.0919256624f, 0.1405082880f, -0.4059130714f, 0.0934511956f, -0.2181601696f, -0.2766925595f},
  {0.2472663980f, 0.3773157443f, 0.0147949320f, 0.0942674868f, 0.0871052420f, 0.0475001177f, -0.2949358051f},
  {0.2962715157f, 0.3184941258f, -0.0779599948f, 0.2812003763f, 0.0382729969f, -0.0182729945f, -0.1788662634f},
  {0.1835980719f, 0.0290840554f, 0.0573139271f, 0.2371137918f, -0.1849457475f, 0.0946378275f, -0.3432024264f},
  {0.1475015753f, 0.3899860426f, -0.1006604332f, 0.2488338189f, 0.1970785601f, -0.1999513474f, -0.1691803193f},
  {0.1463351924f, 0.2984481684f, -0.0279825625f, 0.0687170999f, 0.0191977694f, -0.1500049040f, -0.0967025492f},
  {0.0552350056f, 0.1286995164f, 0.2960136747f, 0.0294330648f, -0.0365148435f, -0.2298404419f, -0.0590312788f},
  {-0.1035103971f, -0.0028410569f, 0.4509744422f, 0.0825895343f, 0.1041428616f, 0.0713727139f, -0.0557094570f},
  {-0.1306250110f, -0.1217022199f, 0.3783547042f, -0.0037472080f, -0.0179066141f, 0.1780270196f, -0.2215219154f},
  {-0.0305756213f, -0.1807054846f, 0.3097879608f, 0.0879119296f, -0.0382037365f, 0.0560147139f, -0.1310890681f},
  {0.2457350106f, -0.0970570183f, 0.0371869836f, -0.1078951267f, -0.0619215849f, 0.0905781590f, -0.0096483084f},
  {0.0906518502f, -0.2023808428f, -0.0234237669f, 0.0005856963f, 0.0601672077f, 0.0729621421f, -0.0690697110f},
  {-0.0247627991f, 0.0135325650f, -0.2225861244f, 0.0101635785f, -0.1579292114f, 0.0506430910f, 0.0971433556f},
  {0.1325090243f, -0.0445782768f, 0.1182210528f, 0.0448892569f, -0.0090431683f, -0.1280436686f, -0.0513752976f},
  {0.0312731678f, 0.0243362821f, 0.0277534182f, 0.1466859082f, 0.1522774748f, 0.2820251705f, 0.0243044216f},
  {-0.1226681662f, -0.1628303251f, 0.0500595395f, 0.0267646901f, 0.0709790885f, 0.0056918885f, -0.1803437287f},
  {0.1270219341f, 0.0527085342f, -0.1707066528f, -0.0542636133f, 0.0535414150f, -0.1169702693f, 0.2031753079f},
  {-0.0711318963f, 0.1308841629f, 0.0205971906f, 0.0508183525f, 0.1523743681f, -0.0105597899f, -0.0650266822f},
  {-0.0208929739f, 0.2035291025f, 0.2541362035f, 0.1120818490f, -0.2474256609f, -0.1273597871f, 0.0571228114f},
  {-0.1379240580f, 0.1696304014f, 0.3188301065f, 0.0640969497f, -0.0680442091f, -0.1083849432f, -0.1494512643f},
  {-0.1156689368f, 0.1127826358f, 0.4765653064f, 0.0862224813f, -0.2368938823f, -0.0963927329f, -0.0710902665f},
  {-0.1836075300f, -0.0102800334f, 0.0718095123f, 0.1875591582f, -0.0190742993f, -0.0967625699f, -0.1616007732f},
  {-0.0142308276f, -0.0667488018f, 0.2607960129f, 0.1950629705f, -0.0115329988f, -0.0219097182f, -0.1244983184f},
  {0.1279238453f, -0.0122816674f, 0.3864932764f, 0.3103215478f, -0.1090729566f, 0.2336096755f, -0.2552281626f},
  {0.1069663243f, -0.2025531791f, 0.2612766147f, 0.3013917455f, 0.2473867865f, 0.1382695232f, -0.3619906407f},
  {0.4679831935f, -0.2748300185f, 0.1737416163f, 0.0683703462f, 0.0676716392f, 0.3735872426f, -0.3953809927f},
  {0.3501207337f, -0.2590885994f, 0.0698112280f, -0.1074857788f, 0.0439327440f, 0.3662030002f, -0.1886748296f},
  {0.3286603673f, -0.0232951565f, -0.1848368489f, -0.2596861188f, 0.2740641465f, 0.3373269891f, -0.0450207806f},
  {0.4442824030f, 0.2857511739f, -0.0698187387f, -0.1539828975f, 0.0804228794f, -0.1048254094f, -0.1905773507f},
  {0.1657637945f, 0.0688620896f, -0.1119149078f, 0.1599881821f, 0.0206021692f, -0.0094149599f, -0.3631413502f},
  {0.3176222216f, 0.2100452695f, -0.0907733399f, 0.2273988371f, -0.1118513685f, -0.2594212593f, -0.3212346837f},
  {0.0796723637f, 0.1308760194f, -0.2034463169f, 0.2368732618f, -0.1315553729f, -0.2459605013f, -0.0659635983f},
  {-0.0177708297f, 0.4653665953f, -0.0043158625f, 0.0405794843f, 0.0654438796f, 0.2026554743f, 0.0974547545f},
  {0.1557479168f, 0.1873813699f, 0.0796466726f, 0.1080416594f, 0.0535888121f, -0.3013490878f, -0.0761482375f},
  {-0.2332721196f, 0.0535595053f, 0.1200663122f, -0.0837751543f, 0.0249958030f, 0.0766391060f, -0.0708808461f},
  {-0.0751373417f, 0.1037678216f, 0.3413002047f, 0.0319284983f, 0.1305184259f, 0.1204386174f, -0.0918282452f},
  {-0.2680202386f, -0.0194062838f, 0.3147792269f, 0.0503328291f, -0.0775475147f, -0.0219961126f, -0.2974769720f},
  {-0.1089703494f, -0.0821322484f, -0.0175415594f, -0.0339706404f, -0.0154147470f, -0.0090046713f, -0.0681537990f},
  {0.0231172384f, -0.0457315934f, -0.0436634030f, 0.0080020570f, 0.0335546602f, 0.1744166974f, 0.0751847543f},
  {0.0830810318f, -0.0232992102f, 0.0849955716f, 0.1698639383f, -0.0449638311f, 0.0115724547f, 0.4004538836f},
  {0.1243973589f, 0.0043280688f, 0.0577051609f, -0.0481471424f, -0.0289079252f, -0.0427886134f, 0.0289584054f},
  {0.2244399188f, -0.0483277887f, -0.0433116564f, 0.0511401125f, -0.0836199984f, -0.0773053519f, -0.0545810707f},
  {0.1056422855f, 0.0667284713f, 0.1713560810f, -0.1180301199f, 0.0735050358f, 0.0171094106f, -0.0028336845f},
  {0.0009714700f, -0.0842656188f, 0.0488146942f, 0.3090733880f, 0.0063415766f, 0.0893962233f, 0.1456645264f},
  {-0.0884184743f, 0.0863046901f, -0.1273077089f, 0.0136270968f, 0.1951821982f, -0.1459169891f, -0.0727728873f},
  {-0.1112522372f, -0.0000283356f, -0.0422926452f, 0.0616888100f, 0.0956028960f, -0.1963808845f, -0.0637939484f},
  {-0.2831088135f, -0.0142044111f, 0.1635246608f, -0.0479452043f, -0.0311884544f, -0.2683270232f, -0.2193053144f},
  {-0.1509657910f, 0.0363838949f, 0.0536795464f, 0.0838009099f, -0.0491432056f, -0.1426353124f, -0.0848181112f},
  {-0.5586869147f, 0.1591710431f, -0.0275866956f, 0.1772160893f, 0.0171567211f, -0.0188592058f, -0.0892548833f},
  {-0.3097890890f, 0.0041757165f, 0.0819270659f, 0.1503238180f, 0.0752464735f, 0.0158332165f, -0.2789536993f},
  {-0.5369198199f, -0.0151346265f, 0.2696394898f, 0.2976767468f, 0.0147765955f, 0.1471426635f, -0.1258356658f},
  {-0.2484289150f, -0.1687846338f, 0.0651235669f, 0.0972364382f, -0.0774853506f, 0.0693640132f, -0.3503469156f},
  {-0.0792046778f, 0.0366321638f, 0.3527678465f, 0.3863303110f, 0.0690862056f, 0.1865699761f, -0.2609608960f},
  {0.0699647189f, -0.1218456718f, 0.0710135443f, 0.1952686239f, 0.0656553198f, 0.1052395871f, -0.2085745366f},
  {0.1913019331f, -0.2972283276f, 0.0518169816f, -0.4427939068f, 0.2147198607f, 0.3540596197f, 0.1441039050f},
  {0.2506393119f, -0.0494344878f, -0.0917582595f, -0.2473918119f, 0.3017367513f, 0.1981030218f, -0.1569222057f},
  {0.2377230092f, 0.1508171414f, 0.1021132590f, -0.2972028182f, 0.2628592984f, -0.0516168720f, -0.3261663070f},
  {0.1938075071f, 0.3930248356f, -0.0978561368f, 0.1268961143f, 0.0357269294f, -0.0831437062f, -0.2297542219f},
  {0.1073875566f, 0.3083986518f, -0.0361472504f, 0.4559496411f, -0.0149742315f, -0.3182362230f, -0.2355548526f},
  {0.0802731387f, 0.3271663090f, 0.0926793495f, 0.1292029195f, 0.0033431523f, -0.1909029265f, 0.0367611587f},
  {-0.0616504702f, 0.1855627842f, -0.2006709988f, 0.1411317031f, -0.0628368780f, -0.1638552746f, -0.0528583925f},
  {-0.0260927072f, 0.1121846019f, 0.0683968720f, 0.1155652777f, -0.0860536153f, -0.0372170601f, -0.0775801912f},
  {-0.1106953240f, 0.1315777775f, 0.1803441201f, 0.2005425839f, -0.0660230361f, -0.0215209347f, 0.1306841770f},
  {-0.0650768190f, -0.0035121493f, 0.0583925233f, -0.1029909706f, 0.1332151531f, 0.0116610574f, 0.1315606576f},
  {-0.1693195212f, -0.2116628795f, 0.2794545271f, 0.0546664522f, -0.0566741904f, -0.0025357934f, -0.2167722674f},
  {-0.0631477357f, -0.1131473556f, 0.1461909764f, -0.1450398629f, 0.1182261036f, 0.0702203645f, 0.1885084339f},
  {-0.0722535877f, 0.0095839345f, -0.0623222631f, 0.1096653063f, 0.1021073592f, -0.0335971458f, 0.1848638173f},
  {-0.0305122605f, -0.0306682133f, 0.0233906504f, 0.0018882450f, -0.0325386890f, 0.1754686804f, 0.0291900127f},
  {0.2952342239f, -0.0411160112f, 0.1119762341f, 0.0735298282f, 0.0487943235f, 0.1525172361f, -0.0521309989f},
  {-0.0976594828f, -0.0451472263f, 0.0066046963f, 0.0844346075f, -0.0403586537f, -0.0378834322f, -0.1168364797f},
  {-0.0707983531f, -0.1057310102f, 0.0568115126f, 0.1188262370f, 0.1735325869f, 0.1511754030f, -0.0249950209f},
  {-0.0713652376f, -0.1268195187f, 0.1455146250f, 0.0307402982f, 0.1412284038f, -0.0160049701f, -0.1732340858f},
  {-0.0918965005f, -0.0253618396f, 0.0267250199f, 0.0762252462f, 0.0491106495f, 0.0447922022f, 0.1521841013f},
  {0.0718254484f, 0.1221322446f, -0.1888002367f, 0.0262869594f, 0.0133127205f, 0.1519083164f, 0.1085629263f},
  {-0.4274652499f, 0.0023570820f, 0.0741075152f, 0.0538034739f, 0.0825482715f, -0.0426661918f, 0.0483023004f},
  {-0.2571758900f, -0.0096018418f, 0.0050244507f, 0.1688997011f, 0.0773235519f, -0.1192863452f, 0.0279023014f},
  {-0.3904547703f, -0.0647201454f, 0.0647027933f, 0.1628509337f, -0.0481021667f, -0.0443318467f, -0.0701800648f},
  {-0.3845077701f, 0.0127895294f, -0.1043528505f, 0.2692948541f, 0.0443753403f, -0.1935376943f, -0.1495749925f},
  {-0.2841243721f, -0.0846235996f, 0.1735492377f, 0.0593054457f, 0.2925935789f, -0.2719812970f, -0.0450115902f},
  {-0.2589213605f, -0.1403237608f, 0.1584586427f, 0.1610745269f, 0.2435561519f, 0.0366095893f, -0.2113054155f},
  {-0.2328848853f, -0.1462794449f, 0.3654843410f, 0.2459877582f, 0.3257513854f, -0.0070744947f, -0.3349227780f},
  {-0.0099391581f, -0.0655979019f, -0.0995264013f, -0.0628509870f, -0.0914214107f, 0.0241533307f, -0.2647283705f},
  {0.0521361505f, -0.0658684479f, -0.0463526415f, -0.2351132334f, 0.3550524232f, 0.2265493684f, -0.0099233839f},
  {0.1314454017f, 0.2574954080f, -0.1623948391f, -0.1643060874f, 0.3965029513f, 0.0193268786f, -0.0775355039f},
  {0.1410241439f, 0.2690122012f, -0.0028216156f, 0.0253175057f, 0.3017916976f, -0.1131311341f, -0.2909137890f},
  {0.0942291700f, 0.3584404745f, -0.0639083776f, 0.2863647433f, 0.0410075481f, -0.1888760455f, -0.1695070307f},
  {0.0130856464f, 0.1441030370f, -0.0701411534f, 0.2287123565f, -0.0241378155f, -0.1198566690f, -0.1627805636f},
  {-0.0319636031f, 0.3316093860f, -0.1034303979f, 0.4374270046f, 0.0013813900f, -0.1711701436f, -0.1118602726f},
  {-0.0254788674f, -0.0154213593f, -0.0239232645f, 0.0894541990f, -0.0518477150f, -0.0394187625f, -0.0187862731f},
  {-0.0910837376f, 0.1982049097f, -0.0537352319f, 0.1722769655f, 0.0219061623f, -0.0911508028f, -0.0812946676f},
  {-0.0790891673f, 0.0630111450f, -0.1373657139f, 0.0990161765f, 0.2734163531f, -0.1009020959f, -0.0898301106f},
  {-0.2476221489f, -0.0945791071f, 0.0563579335f, 0.1373125180f, -0.1309733243f, 0.1779518453f, 0.0709291653f},
  {0.1104123026f, -0.0688495241f, -0.0296875664f, -0.0818685733f, 0.0468143968f, 0.1954282711f, 0.1128186005f},
  {-0.0221831378f, 0.0207029804f, -0.1206422021f, -0.1067009930f, 0.1761198537f, 0.1321488256f, 0.0118903365f},
  {0.0658247433f, -0.1340083458f, -0.0945851067f, -0.0620902264f, 0.2237304968f, 0.1428279794f, 0.1099140131f},
  {-0.0270688736f, -0.0054587193f, 0.0176562779f, 0.0869610825f, 0.1461976294f, 0.0351940446f, -0.1379726276f},
  {-0.0473744074f, -0.0083041744f, -0.0376373079f, 0.1390636272f, -0.1140578976f, -0.0401414541f, -0.0760943366f},
  {-0.1727960913f, -0.0140388054f, 0.1212902047f, -0.0090245125f, -0.0883311068f, -0.0235808057f, -0.0107021314f},
  {0.0733561982f, 0.0048632702f, -0.0241233432f, -0.1380578053f, 0.0814208964f, -0.1334459809f, -0.0505548675f},
  {0.0376248510f, -0.1043691888f, -0.0085955138f, -0.0582549052f, -0.0585166502f, 0.0480683871f, 0.0660956968f},
  {0.1985626595f, 0.0628041888f, -0.0540104118f, -0.0534572742f, 0.0601466378f, 0.1312724534f, 0.1694401773f},
  {-0.1259535266f, 0.0753120989f, -0.2380681937f, -0.0641994110f, -0.0851927598f, 0.0708671090f, 0.1013725673f},
  {-0.4002926400f, 0.0164289822f, -0.0659506181f, 0.1407998547f, -0.0050182789f, -0.0319463461f, 0.3836493223f},
  {-0.2108853319f, 0.0149133119f, 0.1016944863f, 0.0916636152f, 0.0492909136f, 0.1905322048f, 0.1520790807f},
  {-0.1968580270f, 0.0454600595f, 0.0564266191f, 0.1697767493f, 0.1907409547f, -0.1433691524f, 0.1046994371f},
  {-0.1603229455f, 0.3459692322f, 0.1014831846f, 0.2590468098f, -0.0945054584f, 0.0941293776f, -0.0207764978f},
  {-0.2316934883f, -0.1279277616f, 0.0925790552f, 0.1169764547f, 0.1035594115f, 0.0228896455f, -0.1541472894f},
  {-0.3668339204f, -0.0114993295f, 0.0272344502f, 0.0585588336f, 0.2765380413f, -0.0848108573f, -0.2191783816f},
  {-0.3119519251f, 0.1627051270f, -0.1103884040f, 0.1027090510f, 0.1491654188f, -0.0090543174f, -0.1222923124f},
  {-0.1398374711f, -0.0215408417f, -0.2360198514f, -0.1234817909f, 0.1667371820f, -0.2230964955f, -0.1139117841f},
  {-0.1076426922f, 0.2003633614f, 0.0506831850f, -0.1861037181f, 0.3472518904f, -0.1545143866f, -0.0778415167f},
  {0.1017194780f, 0.1021891423f, -0.1151751571f, -0.1816584270f, 0.5597439375f, -0.0069582290f, -0.1119926892f},
  {0.1111038963f, 0.3068829927f, -0.0088022759f, 0.2024108650f, 0.1556094296f, -0.1222937166f, -0.2267988782f},
  {-0.1119703390f, 0.1394706544f, -0.0741769684f, 0.2236808591f, -0.0030403016f, -0.1005847417f, -0.0773083691f},
  {-0.1048663242f, 0.1589003657f, -0.0076522134f, 0.2707922474f, -0.0667858069f, -0.0696792720f, -0.0310731921f},
  {-0.1151443968f, -0.0251012227f, -0.0622751560f, 0.1918286381f, -0.1198358336f, -0.0005048991f, 0.0254213885f},
  {-0.0506257799f, -0.0010195562f, 0.0361980057f, 0.0721967733f, 0.0514771169f, 0.0863662328f, -0.0151201038f},
  {-0.1133375961f, -0.1133340905f, -0.0661162667f, 0.2127836638f, 0.0743123563f, 0.1304700494f, 0.0137803686f},
  {0.1678421104f, -0.1723626257f, 0.0241004487f, 0.0150119489f, -0.0346282279f, 0.2307888270f, -0.1604489834f},
  {-0.1067740324f, -0.3093516388f, -0.0462134747f, 0.1166983163f, 0.0216956822f, 0.2213794843f, -0.0536260930f},
  {-0.0874513356f, -0.1882084361f, -0.0331445304f, 0.0165140094f, 0.1275398044f, 0.0378874239f, 0.2702850744f},
  {0.0633727446f, -0.1215767946f, 0.0056117865f, 0.0424514577f, -0.0343082340f, 0.0570005402f, 0.0255499270f},
  {-0.0772041356f, -0.2165427598f, -0.0136163167f, 0.1348584911f, -0.1539358975f, 0.2332454307f, 0.0531162585f},
  {-0.0470480213f, 0.2835121342f, -0.0297376594f, 0.0151906722f, 0.0221664602f, 0.0207713648f, -0.0656461995f},
  {0.1137082760f, 0.0680033085f, 0.0421053228f, 0.0381998860f, 0.0859915002f, 0.0074682300f, 0.1184140465f},
  {-0.0447740039f, 0.1213742382f, 0.1025451995f, 0.1460356882f, -0.2506805958f, -0.1063519478f, 0.0356717460f},
  {-0.1202637015f, -0.1044361870f, -0.1352980309f, 0.0244982424f, 0.0064651110f, 0.0019109620f, 0.0586237306f},
  {0.0879806557f, -0.0631258775f, 0.1226161294f, -0.0155789624f, -0.0070202632f, 0.0573525245f, -0.0740118680f},
  {0.0364252465f, 0.0172959845f, -0.1876165242f, -0.0747559287f, 0.0925286742f, 0.0041303182f, 0.1141493819f},
  {-0.0142146417f, -0.1210214646f, -0.0883001026f, 0.1376148300f, 0.1426414469f, 0.0269706042f, 0.1651436495f},
  {-0.1168672783f, -0.1316040747f, -0.1137874564f, 0.2883847953f, 0.1218187643f, 0.1536476897f, 0.1735214168f},
  {-0.1606852084f, -0.1551367438f, 0.0377901948f, 0.1362183384f, -0.0291828493f, 0.1992377960f, 0.2032883833f},
  {-0.2057228095f, -0.0289112667f, 0.1064435171f, -0.0347284769f, 0.0771677090f, 0.0981335030f, 0.1538611591f},
  {-0.3600554124f, -0.1248189524f, 0.1021474163f, 0.1037120157f, 0.1753854223f, -0.1063475500f, 0.1005760820f},
  {-0.1873631018f, -0.1784740313f, -0.0048138926f, 0.0527800360f, 0.1618462622f, 0.1090315522f, -0.0989954170f},
  {-0.3603942902f, 0.0492026831f, 0.0006645869f, 0.0023237301f, 0.1088091881f, 0.1374599836f, -0.0816390152f},
  {-0.3165515326f, -0.0616472107f, -0.1055372427f, -0.0422052552f, 0.3036084018f, 0.1219975220f, -0.0850815003f},
  {-0.2868920239f, 0.2010140585f, -0.1587768084f, -0.0238212718f, 0.2384026996f, -0.0202882496f, -0.0984161681f},
  {-0.1235770119f, 0.1648733598f, -0.2690410271f, -0.2607717596f, 0.4031395756f, -0.1536119407f, 0.1352784029f},
  {0.0668738462f, 0.1254218963f, -0.1353401759f, -0.1711593576f, 0.2902273947f, -0.3696153255f, -0.0757801084f},
  {-0.0669310012f, 0.0875863775f, -0.1481430985f, 0.0632662685f, 0.1195771695f, 0.0886710459f, -0.0915816684f},
  {-0.2397263769f, 0.0004437091f, -0.0977730090f, 0.1575903923f, 0.0374656418f, -0.0256095241f, 0.0305253632f},
  {-0.0405724989f, -0.0533716203f, 0.0720906119f, 0.1806582179f, 0.0691386129f, 0.0612273351f, 0.1034327562f},
  {-0.1265148670f, -0.0662166357f, -0.0537601836f, 0.1901571048f, -0.0752495208f, 0.0639851965f, 0.0657236167f},
  {-0.0494926270f, -0.2284849175f, -0.0879554422f, 0.0265828015f, -0.0083070355f, 0.2580891739f, -0.0237632334f},
  {-0.1777822773f, -0.2228502850f, 0.0182723548f, 0.0905567300f, 0.1427842708f, 0.0931236325f, -0.0896683699f},
  {0.0219414295f, -0.2400839390f, -0.0184868270f, 0.2279707743f, -0.0260707800f, 0.2819878773f, 0.1158893824f},
  {-0.0526220368f, -0.3199316486f, -0.2028317310f, 0.2115082690f, 0.0932377050f, 0.1590694716f, 0.1150884634f},
  {-0.1471057380f, -0.1679042649f, -0.0612606650f, 0.1357198673f, 0.2781024539f, 0.1925221499f, 0.2136850352f},
  {-0.1728228317f, -0.1728071563f, -0.0905654402f, 0.0566855961f, 0.0707124518f, 0.0913690925f, -0.0716184794f},
  {-0.1617919833f, -0.0496254393f, -0.0408227075f, 0.0835712785f, 0.0755493515f, -0.0067357045f, 0.0979023469f},
  {-0.1902925769f, -0.0271294469f, -0.1962004177f, 0.0219202376f, -0.0066504421f, 0.0496308040f, 0.0769885355f},
  {-0.0335658177f, -0.1630703056f, 0.0224817286f, -0.1471079994f, 0.0854724797f, 0.0772998115f, 0.1171023222f},
  {0.1345979369f, -0.1727968597f, 0.1368035175f, 0.1421041967f, -0.0172573823f, 0.0413624765f, 0.0855953853f},
  {-0.0072137862f, -0.0914154988f, -0.1107540329f, 0.0668082384f, -0.1203883260f, 0.1470561878f, 0.0449089671f},
  {0.1543815757f, 0.0385020525f, -0.1293885864f, 0.1281984627f, 0.0291688660f, 0.0214260153f, -0.0566646676f},
  {0.0165284012f, 0.0512674287f, -0.1592704530f, 0.1926402085f, -0.1291396697f, -0.0586243597f, 0.1218961112f},
  {-0.1306804852f, 0.0254338635f, -0.0880552786f, -0.0423202756f, -0.1219453662f, 0.0652033399f, 0.1133794794f},
  {-0.0248732970f, -0.3271166018f, -0.0174093148f, 0.3242600272f, -0.1697493899f, 0.0386190146f, 0.1858629304f},
  {-0.0486015119f, -0.3162445419f, -0.0365303345f, -0.0370852878f, -0.2515833074f, 0.4548704310f, 0.3059477525f},
  {-0.0979192193f, -0.2492332043f, -0.0108093196f, 0.3753489549f, 0.0643414840f, 0.3948937859f, 0.2643989719f},
  {-0.1327062727f, -0.3562835605f, 0.0568042570f, 0.1432122233f, -0.0228863034f, 0.2298820445f, 0.3537893673f},
  {-0.0930660194f, -0.2769329730f, -0.1069261367f, 0.1108423149f, 0.2369426723f, 0.2622985165f, 0.1017228539f},
  {-0.2702092604f, -0.4673823270f, -0.0884554223f, 0.1981377316f, 0.3893195303f, 0.2253754740f, 0.1168472787f},
  {-0.4168770261f, -0.2519800880f, -0.1596132927f, 0.0732824824f, 0.2028466770f, 0.3504627590f, -0.1386283915f},
  {-0.4076757122f, -0.1260372376f, 0.0582433824f, 0.1767935323f, 0.3634085024f, 0.1654471985f, -0.1741683243f},
  {-0.1631208067f, -0.1669672480f, -0.0044151554f, -0.1792331327f, 0.1724143858f, 0.2066437005f, -0.0315366922f},
  {-0.1820046072f, -0.0238502182f, -0.0024269021f, -0.0961330670f, 0.1429589584f, 0.0993970300f, -0.1087601046f},
  {-0.0726355859f, -0.0278600800f, -0.0234738264f, 0.1977972473f, 0.1605158033f, 0.0708378745f, -0.0449109146f},
  {-0.1958519145f, -0.2011457684f, 0.0919897704f, 0.0625891003f, 0.1001884140f, 0.1792713295f, -0.0430029129f},
  {-0.1788796549f, -0.2443318001f, -0.1205707140f, 0.1864576792f, 0.0534600392f, 0.2973974048f, -0.1008350404f},
  {-0.1354032768f, -0.1397080008f, -0.2291467249f, 0.0320764835f, 0.1095869983f, 0.1334413963f, -0.0643803506f},
  {-0.0482581334f, -0.1178496449f, 0.0081601392f, 0.1632884874f, -0.0497773875f, 0.2288998928f, -0.0509117560f},
  {-0.0431683996f, -0.0881536733f, 0.0022865046f, 0.0253187498f, -0.0134832191f, 0.0625509804f, 0.0886575079f},
  {-0.0695878408f, -0.2838539794f, -0.0919694241f, 0.0522866380f, 0.1792638237f, 0.2211186557f, 0.2543372647f},
  {-0.2345191671f, -0.1129295253f, -0.0086075240f, 0.0859997810f, 0.1595753319f, 0.2782106042f, 0.1671626850f},
  {-0.1859490609f, -0.2037222862f, -0.1529985844f, 0.1812693128f, 0.1868796239f, 0.1237050825f, 0.1642930887f},
  {-0.1824841601f, -0.2689043313f, -0.0492494038f, 0.0517845599f, 0.0731314862f, 0.0977184766f, 0.2912030529f},
  {-0.0180530557f, -0.0580620905f, -0.1128546010f, -0.1842430363f, 0.1831308071f, 0.0728605978f, -0.0160428951f},
  {0.2327529512f, -0.1402670207f, 0.2496231444f, -0.0822836758f, -0.1190927723f, 0.1652654658f, 0.0205369207f},
  {0.0033924859f, 0.0930022344f, -0.0590338088f, 0.1371175065f, -0.0550031587f, -0.0921912581f, -0.0876619132f},
  {-0.0337045423f, -0.0195278657f, 0.0052792868f, -0.0117465373f, -0.0409955227f, 0.0911452230f, 0.0476076798f},
  {0.0568041784f, -0.0201797209f, -0.0226880010f, -0.0161347265f, 0.1360964893f, 0.0708833716f, -0.0480802504f},
  {0.1169994894f, -0.0044084551f, 0.0398738971f, -0.0067861844f, -0.1602779044f, 0.0164633891f, 0.1116054810f},
  {0.1851628459f, 0.1005486793f, -0.1033380597f, 0.0618814293f, 0.0368713513f, -0.0063592876f, -0.0180838712f},
  {0.0489421209f, -0.2944364416f, -0.0996068207f, 0.1208893248f, 0.2103376727f, 0.1207524100f, 0.1619698363f},
  {0.0156721942f, -0.2093733845f, -0.0480515666f, 0.0627392251f, 0.0756009025f, 0.1824409122f, 0.2598256573f},
  {-0.2162559932f, -0.2747990438f, 0.1009789123f, 0.1460887739f, 0.0355567236f, 0.2986881086f, 0.4154997946f},
  {-0.0450587885f, -0.4213053682f, -0.0026489220f, 0.2321223297f, -0.0887362101f, 0.2373080712f, 0.3669247608f},
  {0.0154752158f, -0.3094531077f, -0.0488698357f, 0.0923792103f, -0.0519367197f, 0.3774454301f, 0.3393675445f},
  {-0.1772162565f, -0.2746764814f, 0.1632727517f, 0.1262799964f, 0.2133316244f, 0.2410863719f, 0.4159003339f},
  {-0.2160330589f, -0.3150865760f, 0.0858126964f, 0.1909538535f, 0.0994576721f, 0.1525433365f, 0.0455073507f},
  {-0.1194824689f, -0.2952802739f, 0.3166779817f, 0.1128358218f, 0.2330199406f, 0.2470788315f, -0.1370122059f},
  {-0.0260573042f, -0.0909723746f, 0.2820469324f, -0.0016343032f, 0.2079336730f, 0.2198438205f, -0.0471086761f},
  {-0.0992105754f, -0.3285567869f, 0.0860622069f, 0.2337079082f, 0.2152759972f, 0.0058510921f, -0.1782541708f},
  {-0.1504311961f, -0.0888870007f, 0.2201309749f, -0.0606829776f, 0.2994006934f, 0.2661055088f, -0.0329364366f},
  {-0.1752996022f, -0.1916444783f, 0.0263190606f, 0.1481632035f, 0.1134053036f, 0.2331283997f, -0.2425645687f},
  {-0.0652059728f, -0.1049751408f, 0.1989015996f, -0.0377253287f, 0.0434325168f, 0.0266810582f, 0.0114477022f},
  {-0.1183648362f, -0.0540083650f, 0.0625105279f, 0.0756730298f, -0.0160576363f, 0.1429726298f, -0.0255697417f},
  {-0.0135469953f, -0.1650154870f, -0.0489695503f, 0.1855601455f, 0.1207253443f, 0.2052917953f, 0.0072270632f},
  {-0.2305947466f, -0.3364936870f, -0.1015123986f, 0.2048606923f, -0.0510253133f, 0.0394049142f, 0.1116621120f},
  {-0.1654442506f, -0.3205690940f, -0.1178112015f, 0.3914587038f, -0.1255069214f, 0.1628080941f, 0.1112533432f},
  {-0.1004651726f, -0.2529594390f, -0.0974576388f, 0.2109174223f, 0.1654567830f, 0.2850888389f, 0.3198357552f},
  {-0.1302863376f, -0.1226664551f, -0.1839057484f, 0.0302101961f, 0.0249931068f, 0.0982467032f, 0.0725944719f},
  {-0.2746478890f, -0.2043368338f, -0.0130985991f, -0.0208940843f, 0.2176878408f, 0.1798892291f, 0.1106591048f},
  {-0.1894950556f, 0.1054076276f, -0.0657529279f, 0.0538589207f, 0.0508411636f, -0.0106936153f, -0.0420883883f},
  {-0.1909209491f, -0.2165720477f, 0.1428538870f, -0.1107800868f, -0.1000011311f, 0.2608759950f, 0.1836150730f},
  {0.0266937789f, 0.1082007922f, 0.0166832003f, 0.0861625330f, 0.0819577034f, -0.0036581809f, 0.1174038651f},
  {0.0922163565f, -0.1094124707f, 0.0027632094f, 0.0489369846f, -0.0015081652f, 0.1856838522f, -0.0074091735f},
  {-0.1041134839f, -0.0053699038f, -0.1080877952f, 0.0428734814f, 0.1095614914f, 0.1609659861f, 0.0058583254f},
  {0.2081600510f, 0.0409426105f, -0.0705222518f, 0.1749209415f, -0.0330474405f, 0.0613755836f, 0.0833576378f},
  {0.0226139553f, 0.1223388286f, -0.2560281164f, -0.1039915352f, -0.0559282862f, -0.0741273615f, 0.0291701915f},
  {-0.0180236647f, 0.0077591660f, -0.1897554791f, 0.1341166215f, 0.1325160382f, -0.1388146044f, -0.0542400348f},
  {-0.0831551330f, -0.1881048162f, -0.2036271929f, 0.0244002411f, 0.0152521999f, 0.0046677759f, 0.1096631753f},
  {-0.2238181842f, -0.1948399515f, -0.1310256982f, -0.2033484645f, 0.0262663780f, 0.1276131760f, 0.2793264233f},
  {0.0871821454f, -0.3031144396f, -0.2667240480f, -0.0200646755f, 0.0329778799f, 0.1723807865f, 0.3078994031f},
  {-0.0563113482f, -0.2061703086f, -0.0380742094f, -0.1304705649f, 0.0460961617f, 0.3649941803f, 0.4404228747f},
  {0.0368442235f, -0.2926055090f, -0.0293223152f, -0.0508239937f, 0.0618095003f, 0.1777210738f, 0.4092469225f},
  {-0.0693360609f, -0.1580146160f, 0.0249633534f, 0.1422251747f, 0.1104258799f, 0.2284696461f, 0.2608065477f},
  {-0.0634222872f, -0.2933032496f, 0.1354257774f, -0.0210574512f, 0.1047931355f, 0.0915649067f, 0.1765717647f},
  {-0.0632797637f, -0.2980754324f, 0.1387259055f, 0.2123003705f, 0.0752379713f, 0.2763005707f, 0.0114672620f},
  {-0.0149256751f, -0.0570857455f, 0.1424564063f, 0.2391434353f, 0.2379982086f, 0.0597507703f, -0.2613766033f},
  {-0.0416856046f, -0.1660155532f, 0.0842394411f, 0.2070662419f, 0.0762763282f, 0.0379251216f, -0.0298024720f},
  {-0.0573984288f, -0.0394476727f, 0.0647887621f, 0.2142117254f, 0.0789637512f, 0.2648132616f, -0.1499947037f},
  {-0.1798475695f, -0.0235182180f, 0.1207717483f, 0.0161197563f, 0.0021435979f, 0.1900261142f, -0.0252214178f},
  {-0.1910425430f, -0.2084734047f, -0.0071642586f, -0.0847382287f, 0.2510853283f, -0.0711593988f, -0.0291808909f},
  {-0.2500395584f, -0.2993850605f, 0.0764802432f, 0.0891958679f, 0.0225423111f, 0.2076763832f, 0.0278748888f},
  {-0.0684458044f, -0.1003650677f, 0.1037093689f, 0.2651960165f, 0.0300682503f, 0.1994795127f, 0.1758927097f},
  {-0.1847946396f, -0.2201996519f, -0.0836700475f, 0.3834314486f, 0.0728884912f, 0.1687755204f, 0.1367233907f},
  {-0.1403384675f, -0.1552328343f, -0.0720460200f, 0.1824237969f, 0.1066115255f, 0.1044077629f, 0.3695953299f},
  {-0.1962002738f, -0.1994977371f, -0.1582610234f, 0.1424352531f, 0.1858798482f, -0.0813707899f, 0.2769797607f},
  {-0.1261751698f, 0.0251306507f, -0.0380275059f, 0.1100487641f, 0.2477059357f, 0.2649106411f, 0.2576945184f},
  {-0.0672779918f, -0.1079138513f, -0.0128558105f, 0.0992011943f, 0.0682305657f, 0.2453873507f, 0.0407233454f},
  {0.0316895088f, -0.0917927253f, 0.1523469206f, 0.0963044697f, 0.2337775194f, -0.0102371760f, 0.1083737379f},
  {0.0935700286f, -0.0549744521f, -0.1572318047f, 0.0954560504f, 0.0489477919f, -0.1917669615f, -0.0071617502f},
  {0.0578309719f, 0.0534060775f, -0.0067759868f, 0.1443628161f, -0.1084792484f, -0.0313287666f, -0.0368182780f},
  {-0.0731172115f, 0.0024437570f, -0.0114080685f, -0.2124824462f, 0.0493029760f, -0.0378731677f, -0.1013025122f},
  {-0.1137548360f, 0.1750337877f, -0.0282556627f, 0.1202729263f, 0.0014408518f, -0.0753408041f, -0.0470811119f},
  {0.0329756496f, 0.1386585850f, 0.0119843170f, -0.0134416035f, 0.0528585076f, 0.0896699591f, -0.0556522442f},
  {0.0160823090f, -0.0028252082f, 0.0030425289f, 0.2376152986f, 0.0470052547f, 0.0817637035f, -0.1710073728f},
  {0.0266884079f, -0.0159203756f, 0.0135562312f, 0.0407332586f, -0.0891835493f, -0.1877185760f, 0.1315328717f},
  {-0.0018949951f, -0.0899375643f, -0.2002019060f, -0.0728925731f, 0.0198366829f, -0.0077328306f, 0.0108830493f},
  {-0.0891808640f, 0.0378328721f, -0.1960742370f, 0.0432785129f, 0.1081497420f, 0.0824760199f, -0.0554571797f},
  {-0.0715869868f, -0.2580966542f, -0.1694196048f, 0.1842865233f, 0.0835919836f, 0.1205160780f, 0.1944082207f},
  {0.0075827339f, -0.1090550862f, -0.0736527628f, -0.0155367609f, -0.1966717955f, 0.1656650621f, 0.4080518314f},
  {-0.0100648916f, -0.0735770256f, 0.0819466702f, -0.0076445247f, 0.0700126504f, 0.0474385320f, 0.3349957866f},
  {-0.1615311518f, -0.1427729355f, 0.1281187007f, 0.1387662958f, 0.0090532115f, 0.1938633523f, 0.2751221487f},
  {-0.0644849161f, 0.0472307042f, 0.0051498411f, 0.1079001084f, -0.0425296378f, -0.0782525226f, 0.3418498807f},
  {-0.0527859628f, -0.1670163384f, 0.0350885163f, 0.2278155186f, -0.0100101375f, 0.1386733468f, 0.2933019203f},
  {0.0048317703f, -0.2814597044f, 0.2640987170f, 0.1708798638f, -0.0673670900f, 0.0421879405f, 0.2414367112f},
  {-0.0472583007f, -0.1631526181f, -0.0290326176f, 0.4699061027f, -0.1685591773f, 0.0763957014f, 0.1440431487f},
  {-0.0217382742f, -0.0407168032f, 0.0994760484f, -0.0985903375f, -0.0912947972f, 0.0703594827f, 0.2309035026f},
  {-0.0658106414f, -0.1708174207f, -0.0254055029f, -0.1117109896f, -0.0163217255f, 0.1866041238f, 0.1625962172f},
  {0.0736894026f, 0.0600937705f, 0.0737181234f, 0.0181199533f, 0.0335623677f, -0.0163781161f, 0.2807367450f},
  {-0.0306644418f, -0.0389991084f, -0.0131717123f, -0.1331139580f, -0.0260469399f, 0.1849065207f, 0.1480029808f},
  {-0.0464963335f, -0.1104461174f, -0.0117187184f, -0.0663760824f, -0.0447902598f, 0.1611012838f, 0.1455028432f},
  {-0.0803013527f, -0.2220090868f, 0.0941226403f, -0.0545891439f, 0.0705207494f, 0.0204287290f, 0.2929404580f},
  {-0.1963358149f, -0.0518226184f, -0.0907204982f, 0.1033861971f, 0.1348156666f, 0.0168336937f, 0.2220009854f},
  {-0.2598490067f, 0.0685029209f, 0.0790343405f, 0.0389284875f, 0.1516404551f, 0.0806247035f, 0.0227003755f},
  {-0.1605203445f, 0.0159080916f, -0.1096716874f, 0.0672889397f, 0.0477226411f, -0.0068903972f, 0.1219521868f},
  {-0.1753851161f, -0.0370049808f, -0.0986394627f, 0.0262087086f, 0.0140957591f, -0.1400107941f, 0.0334547287f},
  {-0.1711425617f, -0.0317220328f, 0.0768601253f, 0.1832180258f, 0.2017456697f, 0.0863555080f, -0.0034377456f},
  {-0.1092769829f, 0.0976349936f, -0.1724181108f, 0.0188094537f, -0.0337052434f, 0.0243042516f, 0.0134864344f},
  {-0.0068436144f, 0.0174239579f, 0.1020370597f, -0.0716396899f, 0.1497925102f, 0.0430218630f, 0.0090348014f},
  {0.0191063095f, -0.0516296618f, 0.1818652036f, 0.0505994898f, 0.1751886009f, -0.1208664126f, -0.1974098981f},
  {-0.0230518729f, -0.0766510035f, 0.0324881207f, 0.0502774497f, 0.1323081829f, 0.1171281812f, -0.2468082137f},
  {-0.1165893317f, -0.1494805512f, -0.0730036550f, -0.0895890054f, 0.0970726304f, -0.2330833726f, -0.1375098169f},
  {-0.1145380083f, -0.1856216260f, 0.0933871111f, 0.1800755752f, 0.0625122256f, 0.0101594019f, 0.0835912591f},
  {0.0247738370f, -0.1031217258f, -0.0205180309f, 0.0223963093f, 0.0434966464f, -0.0100545056f, 0.0114599306f},
  {-0.0924719984f, 0.2051543841f, -0.1011330070f, -0.2173706946f, -0.0522560362f, 0.0333247275f, 0.1327982581f},
  {0.0706000993f, -0.1677810023f, -0.1660759963f, -0.1702630678f, 0.1809510537f, -0.0129000830f, 0.1013383853f},
  {-0.1150543483f, -0.0261353536f, 0.0174080685f, -0.0449451398f, 0.0760460330f, -0.0309486446f, -0.0212151112f},
  {-0.1513625981f, 0.0570009587f, -0.1397144278f, -0.0463573641f, 0.0027229549f, -0.0299666974f, 0.3054297042f},
  {-0.0510379257f, 0.0959825977f, -0.0092347486f, -0.0997497222f, -0.0763979027f, -0.1173675487f, 0.1084875915f},
  {-0.0953721816f, -0.1209003619f, -0.0382236812f, -0.1207578201f, 0.1091890350f, 0.0315986474f, 0.4612586223f},
  {-0.1171260311f, -0.0203209134f, 0.1493717966f, -0.0290399635f, 0.0211998751f, -0.0152163715f, 0.1737301438f},
  {-0.0883445018f, -0.2165086371f, -0.0727461784f, 0.2867697676f, -0.3697035687f, 0.0348883372f, 0.2888908112f},
  {-0.2678086699f, -0.1945650157f, -0.1019630376f, -0.0409240599f, -0.1991960551f, 0.0904633278f, 0.3319886911f},
  {0.2160845266f, -0.1787551888f, 0.0677926200f, 0.0357457485f, -0.0701873417f, 0.1637558828f, 0.3931739687f},
  {0.1337797407f, 0.0668626583f, 0.0572820740f, -0.1231211711f, -0.2080095208f, 0.0308501449f, 0.4590459046f},
  {-0.1415993262f, -0.3476510423f, 0.0324761520f, -0.1607098455f, -0.1771098488f, 0.0471774592f, 0.2890916081f},
  {0.0381395101f, -0.1010427013f, 0.0495494073f, -0.3071003815f, -0.0005775541f, 0.0198120276f, 0.3222848340f},
  {0.0128985421f, -0.0740732584f, 0.1154062751f, -0.1444958384f, -0.0353415251f, 0.1582827644f, 0.2547698298f},
  {-0.1790707776f, -0.0781760723f, 0.0299265352f, -0.0334095015f, 0.0517110440f, 0.0615487765f, 0.1916292511f},
  {-0.1626962623f, 0.0359045374f, 0.0333091782f, 0.0535650482f, -0.0588943931f, -0.0596943802f, -0.0242936050f},
  {-0.1194220856f, 0.0771206836f, -0.0836161876f, 0.2520432479f, -0.1112729893f, -0.1777995906f, -0.0345854458f},
  {-0.1424697459f, 0.1099874510f, 0.0265531617f, 0.0593673717f, 0.0394773635f, -0.0245998670f, -0.1519019152f},
  {-0.0790129971f, 0.0928394532f, -0.0637866040f, -0.0864033911f, 0.0648478301f, -0.1960403564f, -0.0069576037f},
  {0.0190246211f, -0.0039416305f, 0.0747313326f, 0.0145390745f, -0.0397561676f, 0.0637406737f, -0.1447635519f},
  {0.0338629826f, -0.0020908258f, 0.0906414148f, -0.0409180054f, 0.0652988747f, 0.0755144678f, -0.0169859359f},
  {0.0005658886f, -0.0172145751f, 0.0134527797f, -0.0748310242f, -0.0046421494f, 0.0322034558f, -0.0280613651f},
  {0.1225440635f, -0.0227236253f, -0.0647356258f, -0.1528787367f, 0.1543545231f, 0.1137106631f, 0.0278884292f},
  {0.0550006076f, -0.0590385641f, -0.2278654213f, -0.0910171927f, 0.0914540768f, 0.0233025536f, -0.0856238108f},
  {0.0736192910f, 0.0701728556f, 0.0947418896f, 0.0326258427f, 0.0171030881f, 0.0057189297f, -0.0355611192f},
  {0.0829059150f, -0.0552087331f, 0.2304548637f, -0.0056444178f, -0.0239217193f, -0.0247992622f, 0.0037147778f},
  {-0.1714125038f, 0.1928694198f, 0.0669217693f, 0.1326899690f, -0.1383992109f, -0.0150227889f, -0.0190185832f},
  {-0.1021572254f, -0.1423204656f, -0.0322959565f, -0.0015443680f, -0.1163753221f, 0.1221738656f, -0.0425466357f},
  {-0.0013004151f, 0.1378064028f, 0.2416371759f, -0.1674403038f, 0.0878463687f, 0.0378015181f, -0.1709988594f},
  {0.0076147582f, 0.3531165710f, 0.0061410173f, 0.0414975887f, -0.0501866798f, -0.0622999478f, -0.0828195275f},
  {-0.0815446793f, -0.1234991253f, -0.1951466409f, -0.0553037769f, -0.0608201922f, 0.0042777861f, -0.0886619994f},
  {0.1974213964f, 0.0399974428f, -0.1208206036f, 0.1678273537f, 0.0498664877f, 0.0353971685f, 0.0555997755f},
  {0.1519053220f, 0.0508681102f, 0.0168045007f, -0.0314352800f, -0.1793380675f, -0.0546060939f, 0.0559203764f},
  {0.0758898953f, 0.1190740397f, -0.0822156770f, -0.0365095477f, -0.2032733370f, -0.0552022898f, -0.0115856734f},
  {0.0793136184f, -0.2013176594f, -0.0413220011f, 0.1221185894f, -0.1222267881f, -0.0029637502f, 0.0214603660f},
  {-0.0660799389f, -0.0116379801f, -0.2131313023f, 0.1976961428f, -0.2192973710f, 0.0058481102f, 0.1397969779f},
  {0.0942329250f, -0.0495987326f, 0.0788346270f, 0.1696733307f, -0.1468303976f, 0.0283579738f, 0.1516540374f},
  {0.0849619340f, -0.1858033707f, -0.0398196913f, 0.0664040024f, 0.1061235658f, 0.0428837639f, 0.0427330605f},
  {-0.0683470937f, -0.2240148235f, -0.1556796771f, 0.1739846919f, -0.0396559725f, -0.0856049072f, 0.1814395530f},
  {0.2815112179f, -0.0655641341f, 0.0944957514f, 0.1588877206f, -0.0399379593f, 0.1653750214f, 0.0132231523f},
  {0.2997083332f, -0.1101723993f, 0.0835929598f, 0.1879905174f, -0.1391802451f, 0.0726725934f, -0.0460977475f},
  {0.1503190162f, -0.0689303947f, 0.0304479016f, -0.0851540333f, 0.0210499695f, -0.0713851461f, 0.0478570184f},
  {0.0951813502f, 0.0244318831f, 0.0398026487f, 0.2204924375f, -0.2092254456f, -0.0643287330f, -0.1019283686f},
  {0.0719975574f, 0.1153652486f, 0.0724064795f, -0.0499364213f, 0.0492517892f, -0.0438358741f, 0.0303761605f},
  {-0.2515826843f, 0.1721092734f, -0.0382851347f, -0.1107392518f, -0.1869037031f, -0.0909304721f, 0.0125634824f},
  {-0.1116635807f, -0.0048710926f, -0.1000066595f, -0.0314703513f, -0.0047405251f, -0.1021179434f, -0.2262735306f},
  {-0.1671999509f, 0.0227075272f, 0.0788533412f, 0.1422252860f, 0.0242497069f, 0.0179814919f, -0.0412875688f},
  {0.0025051175f, -0.0283553557f, -0.0437700544f, -0.0642278098f, -0.0748392402f, 0.1303004386f, 0.0847900780f},
  {0.0213027095f, -0.0184193934f, -0.1197417643f, 0.0010460572f, -0.0462754110f, 0.1328369114f, -0.0711324990f},
  {-0.1222117088f, -0.1061881567f, -0.0564837668f, 0.0433558211f, 0.0790703646f, 0.2518433835f, 0.1939496710f},
  {0.1090378723f, -0.0511871955f, 0.0162241096f, -0.0480804984f, 0.0228770969f, -0.0328253157f, -0.0151830887f},
  {-0.0022297708f, -0.0383870499f, -0.0651642057f, -0.0838841663f, 0.0290180222f, -0.0844794575f, 0.0409645741f},
  {0.2352671005f, -0.0200585428f, 0.0774364109f, -0.0575839871f, 0.1600612432f, -0.0162591035f, 0.1664427179f},
  {-0.0633573170f, 0.0453288344f, -0.0665859945f, 0.1221722474f, 0.0296702530f, 0.1228370203f, -0.1785315989f},
  {-0.0824494068f, -0.0825521083f, 0.1037362251f, 0.0461398734f, -0.1455943595f, 0.0631667191f, -0.0266835531f},
  {-0.1361711049f, 0.0560986839f, -0.0610582820f, -0.1617921407f, -0.0808721202f, -0.1110874863f, 0.0747769234f},
  {0.0203356991f, 0.1010466635f, -0.1132871096f, 0.0039674858f, -0.0321005023f, 0.0553348129f, 0.0085122679f},
  {0.0173299052f, 0.0743349455f, 0.0480034039f, 0.0303191878f, -0.1983756395f, 0.0214054494f, 0.1001519150f},
  {0.2053942433f, 0.1658813714f, -0.1109010118f, 0.1669273590f, -0.0789800829f, -0.1343786106f, -0.2416802413f},
  {0.0371192664f, 0.0771897451f, -0.1175664654f, 0.1798018294f, -0.0046977793f, 0.0483817450f, 0.0091893580f},
  {0.2995357121f, 0.1805384169f, -0.1359340211f, 0.2516015891f, -0.0361238037f, -0.1008623146f, -0.0448724024f},
  {0.1326371334f, 0.1175484970f, -0.2097901970f, 0.1420030870f, -0.1610042693f, -0.1244576408f, -0.0889770632f},
  {0.3739617339f, -0.0721146971f, -0.2496834021f, -0.1000555853f, -0.2726249068f, -0.0333851622f, 0.0173801759f},
  {0.3619448055f, 0.0486415427f, 0.0003319358f, -0.0385402690f, -0.1304432410f, -0.1823865309f, 0.0088718803f},
  {0.3393037314f, -0.0957028819f, -0.2332522548f, 0.2562755799f, -0.2014177934f, -0.0313950595f, 0.0992710884f},
  {0.3683726230f, 0.0133013876f, -0.2310540980f, 0.0137261083f, -0.1487852834f, -0.1736763687f, 0.0364539742f},
  {0.3561399808f, -0.0437887681f, -0.1695009116f, 0.1412818864f, -0.2601134732f, -0.0782077796f, 0.0980672326f},
  {0.2575482194f, 0.0292044950f, -0.1492028288f, 0.2630802192f, -0.1219327901f, 0.0462560427f, 0.0472750206f},
  {0.2603805798f, -0.0397215608f, -0.1304837103f, 0.0153104112f, -0.1665282896f, -0.2976789683f, 0.2105133763f},
  {0.3042932442f, -0.0883974937f, -0.1455050621f, 0.1461486884f, -0.1395580210f, 0.0209349603f, 0.0661490336f},
  {0.1810241159f, -0.0659659683f, -0.1053166736f, -0.0651941025f, -0.0548823111f, -0.1438112608f, 0.0457851549f},
  {0.1353329206f, 0.1117284534f, -0.0318613920f, 0.1670882192f, -0.0689129754f, -0.1767227894f, -0.0016851789f},
  {-0.1416486113f, 0.1453641992f, -0.1647314284f, 0.0331863005f, 0.0234179562f, -0.1353118823f, -0.1128968351f},
  {0.0541603040f, -0.1384770614f, -0.0598468219f, -0.0670506571f, 0.0310946649f, 0.0139832354f, -0.0508276039f},
  {0.0710382990f, 0.0097118323f, 0.0784003709f, -0.0929255893f, -0.1580813851f, 0.0601428050f, -0.0949299022f},
  {-0.1344147224f, -0.0048579138f, 0.0222457163f, 0.0212568694f, 0.0407335548f, 0.0740690916f, -0.0252330358f},
  {0.0857934642f, -0.0320672053f, 0.0295675762f, -0.2067680274f, -0.1280826746f, -0.1087455960f, -0.0547609899f},
  {-0.0232052418f, -0.0463128215f, -0.0088764873f, 0.0345524308f, 0.2501167819f, 0.1195819140f, 0.0088148238f},
  {0.0631295139f, -0.0678636096f, 0.0473116477f, 0.0584060537f, -0.0251550178f, 0.1040772693f, -0.0809800431f},
  {0.0780066788f, 0.0983672841f, -0.0207559609f, 0.0159383702f, -0.0665018744f, 0.0091210602f, 0.0407890736f},
  {0.1557468222f, -0.0685126055f, 0.1231133238f, 0.0269303938f, -0.0179681552f, -0.0311981503f, 0.0217363003f},
  {-0.0211035014f, -0.1320565388f, -0.0089173803f, 0.1335537630f, 0.0419005249f, -0.0773369413f, 0.0214386125f},
  {-0.0679003791f, 0.1252862919f, 0.1675787400f, -0.0107817081f, 0.0869775449f, -0.1489956310f, 0.1297797093f},
  {0.0996646919f, 0.0428796446f, -0.0101793785f, 0.0340070822f, 0.0600401592f, 0.2222699276f, 0.0776782498f},
  {0.1010070561f, 0.0324196408f, 0.2101719290f, 0.0343884327f, -0.1310540773f, 0.0414447716f, -0.1343287551f},
  {0.0675866503f, 0.1720471836f, -0.0880657034f, 0.1393087001f, -0.0087324572f, -0.0446604565f, -0.0765249408f},
  {-0.0457598780f, 0.0793759033f, 0.0129142128f, -0.0655144418f, 0.1938254128f, -0.0052175466f, 0.0604151704f},
  {-0.0277596361f, -0.0134930296f, 0.0035192500f, -0.0416911782f, 0.0704816542f, -0.2122359068f, 0.1603797872f},
  {-0.0875298773f, -0.0495772297f, -0.0211490873f, 0.1047084932f, 0.0183517202f, -0.1749792970f, 0.1082236761f},
  {0.1795086727f, 0.1255949108f, -0.1014021029f, 0.1207988850f, -0.0538473065f, -0.0670985290f, 0.0676975540f},
  {0.0198608645f, 0.1229394333f, -0.2221927203f, 0.1250141163f, 0.1131481074f, -0.1311383805f, 0.2514804080f},
  {0.0628084204f, 0.0720379492f, -0.0692352522f, 0.0789842899f, 0.0633116972f, -0.0306951017f, -0.0487395172f},
  {0.1338943805f, 0.2950931161f, -0.2613135861f, 0.1231780403f, 0.0368797947f, -0.1017827167f, 0.1300872487f},
  {-0.0078773499f, 0.2178384580f, -0.1371895394f, -0.1357535352f, -0.0970807295f, -0.2641099692f, -0.0236226732f},
  {0.2072624991f, 0.1231822836f, -0.2032355766f, 0.0141852373f, -0.1305186054f, -0.1984600950f, 0.1277933155f},
  {0.1395981852f, 0.0916981986f, -0.1046425768f, 0.0080126038f, 0.0004018949f, -0.1546338816f, 0.1309846420f},
  {-0.0624342920f, -0.1090563600f, -0.1448326672f, 0.0791831016f, -0.1112858537f, -0.0467594216f, 0.2123281438f},
  {0.1720270866f, 0.0172858305f, -0.0432094997f, 0.1180450851f, -0.1498753894f, 0.2202207299f, -0.0940310527f},
  {0.1359502201f, 0.1399112090f, -0.0323309091f, -0.1159822081f, 0.0223431720f, 0.0479065278f, 0.1468375527f},
  {0.1253480650f, 0.2135201529f, 0.0944755133f, -0.0365826108f, -0.0171075260f, -0.1132517893f, 0.0319580698f},
  {-0.2172676852f, 0.0148176294f, -0.1831893449f, -0.0896925342f, -0.1555179161f, -0.0777492496f, 0.0404357877f},
  {0.0252690307f, 0.0151092384f, -0.0765945584f, -0.1453342362f, -0.0611034520f, -0.0690488859f, -0.0249451585f},
  {-0.0692671430f, 0.0254977138f, 0.1373319742f, -0.0364099135f, -0.0147156971f, -0.1587820500f, 0.0072910287f},
  {0.0169311855f, -0.1178111747f, 0.0949332885f, -0.0499338251f, 0.1037428294f, -0.1263009683f, 0.0714719996f},
  {-0.1865274202f, -0.1462772348f, 0.1240231358f, 0.0573462620f, 0.0049725020f, 0.1734221000f, 0.0254599464f},
  {0.1762308706f, 0.1256280649f, -0.0619894404f, -0.0372821534f, 0.0736692661f, -0.0892135508f, 0.0547056200f},
  {0.1437350166f, 0.0030091697f, 0.0383580764f, 0.0316675105f, 0.0261817506f, 0.1476954710f, 0.0553498518f},
  {0.0305176792f, -0.0294720041f, 0.0816155862f, 0.0561284156f, -0.0442923708f, -0.0578448191f, -0.0803411957f},
  {-0.0517528092f, -0.0709880465f, -0.0074652502f, -0.2137373630f, 0.1004210856f, 0.0168839979f, 0.0424778815f},
  {-0.0501821448f, 0.0304020107f, 0.2298306762f, 0.1001488279f, -0.0517875543f, 0.0471172772f, -0.0648143670f},
  {0.0984071704f, -0.0737427491f, -0.2074270709f, -0.0580225354f, 0.1173896104f, -0.0292308353f, 0.1752760992f},
  {-0.0777717590f, -0.0987100697f, 0.0505719261f, 0.0432351215f, -0.1080600298f, 0.0621837157f, 0.0784862637f},
  {-0.0166069686f, -0.0102293727f, 0.0341808553f, -0.0805293650f, 0.1010797994f, -0.1295230363f, -0.0920651926f},
  {-0.0534759759f, 0.0146474550f, -0.0015801816f, 0.1693567137f, -0.1048343928f, -0.2344752139f, 0.0112355514f},
  {0.1083038965f, -0.0556727870f, -0.0099412857f, 0.0411984635f, 0.0960369641f, -0.0657101029f, -0.1488100589f},
  {0.0172264413f, -0.0643956726f, -0.0281814618f, -0.0658248691f, 0.1849271950f, 0.0550451734f, 0.0911807766f},
  {0.0894859250f, -0.1135851757f, -0.0170022585f, -0.0467182437f, 0.0776653358f, 0.1184464065f, 0.0496391468f},
  {-0.0742896766f, 0.0548236410f, 0.0757331064f, 0.0728869389f, -0.0217645352f, -0.1146659941f, 0.0460878197f},
  {-0.0242090887f, 0.0737359583f, -0.0055898095f, -0.0185526079f, -0.0410049314f, 0.1814416951f, 0.2419057061f},
  {0.1600620154f, 0.0931331976f, 0.1675707434f, -0.1507569527f, -0.1145849481f, -0.0474701446f, -0.0442873136f},
  {-0.0686466709f, -0.2017818687f, -0.0573000223f, 0.0858823136f, 0.2369925891f, 0.1668010587f, -0.0267813140f},
  {0.0285675797f, 0.1917355069f, 0.0300087748f, -0.0292101229f, -0.0043960816f, -0.0898683075f, 0.0647434608f},
  {-0.0525321351f, 0.0027599197f, -0.1256191401f, 0.0695663472f, -0.0806727235f, 0.2437810544f, 0.1298546069f},
  {0.0942015590f, -0.0182120467f, -0.1190572443f, 0.0232202045f, -0.0485367561f, -0.0760015616f, 0.0456735706f},
  {-0.0073278712f, 0.1947295374f, -0.0734541014f, 0.0110086869f, 0.0718370527f, -0.2145170907f, -0.1071557125f},
  {-0.1099969973f, 0.0543308263f, 0.0551108012f, 0.0014832580f, 0.1590517450f, -0.0335277158f, -0.1227987675f},
  {0.0496056233f, -0.0605769244f, -0.1504590671f, -0.0455911274f, -0.0477438955f, 0.0148981711f, -0.0051878300f},
  {-0.1665329043f, -0.1064870459f, 0.0020823022f, -0.1332918817f, 0.1280832026f, 0.1082957662f, 0.0000008400f},
  {0.0353592750f, -0.0697395288f, 0.0483490011f, -0.2301089446f, 0.0633608261f, -0.0107737355f, 0.1248605046f},
  {0.0042573141f, -0.0889828477f, -0.0015520202f, 0.2416464700f, -0.0699489821f, -0.0053807835f, 0.0138807300f},
  {0.0860780516f, -0.0834928042f, -0.1303895359f, -0.1678270245f, 0.0598662275f, -0.0139852582f, 0.0674024977f},
  {-0.0594084792f, 0.0524313220f, -0.1785264219f, 0.0098899241f, -0.0160945576f, -0.1724009629f, 0.0440192666f},
  {0.0133259489f, -0.0680002232f, 0.1576547229f, 0.0562188972f, 0.1611833647f, -0.0346939407f, -0.2955960696f},
  {-0.1048085218f, 0.0339785069f, -0.1384230087f, 0.0693228628f, 0.1558522003f, 0.0319725257f, -0.1240799235f},
  {0.1335069287f, 0.1459960545f, 0.0246173670f, -0.1718504607f, 0.1249744801f, 0.0790418304f, 0.1230878519f},
  {-0.1351901313f, 0.0038301465f, 0.1144950064f, 0.1036495367f, 0.0145771400f, 0.0587403613f, 0.0821889413f},
};
const float weights1[H1_SIZE][H2_SIZE] PROGMEM = {
  {2.2865323772f, 1.2104119166f, 0.8143462819f, -0.3057698404f, 1.2396395435f, -3.8105968832f, -0.4131154302f},
  {0.1732941787f, 0.7567329989f, 2.7439466774f, 0.6468898672f, -0.3207955487f, -0.0275463581f, -3.3416661435f},
  {-2.5126766129f, -0.1642558970f, 0.9556697950f, 1.8333225685f, -3.3237504002f, 1.8216001612f, 0.1796015454f},
  {-1.3509384270f, 1.9447008082f, 0.8940255223f, 2.6601341054f, -1.3514385948f, 1.9427513800f, -0.9979550096f},
  {0.3120248528f, -4.0835658146f, 1.3313873625f, -1.7823266053f, 1.6368365281f, 1.3784974266f, 0.5315404751f},
  {-0.6418012953f, -1.1441466919f, -1.6622917096f, -0.3514069718f, 0.2660717929f, 0.9892567221f, 2.6442838000f},
  {2.2464985064f, 1.6018430595f, -2.1821972452f, -1.2483808991f, 1.8168549325f, -2.4717202874f, 1.5573119315f},
};
const float weights2[H2_SIZE][OUTPUT_SIZE] PROGMEM = {
  {-2.7011851373f, 2.5653696509f, 0.1403447330f, 1.6107227525f, -2.4177975578f, -0.1245967731f, -2.2768228242f, 2.4727618977f, 0.9698980149f, -0.0365528834f},
  {1.3954178582f, -2.4947437078f, -2.4615600215f, 2.1177157714f, 0.4255370139f, 1.5139665223f, -4.2916582107f, 1.2353264050f, 1.0945193987f, 1.9057644052f},
  {-2.9270503239f, -0.9528069156f, -1.0070039151f, -2.1085949599f, 2.5980409491f, -0.6887227290f, 1.2636020474f, 2.2246918342f, -0.8599047091f, 2.3087462988f},
  {1.1616508150f, -4.6343747284f, -1.3731196286f, -0.6263765711f, 1.4837142256f, 1.1101416832f, 1.3507004146f, 0.2466338497f, -0.0285159918f, 1.4401639025f},
  {-2.2516884646f, 3.1296853411f, 2.0339667766f, 1.9905470338f, -2.2046349510f, -1.3115116822f, -1.5000658908f, 0.8099321314f, 1.0194253561f, -1.6566089440f},
  {2.9499514139f, -2.9575438491f, 3.0406778307f, -2.3635528912f, 2.7841771427f, -1.0244865134f, 3.3362409096f, -3.1875808001f, -1.4324970211f, -0.8104740506f},
  {1.5105856951f, 2.1586481013f, 1.2205291188f, 0.9591428119f, -3.6602840344f, 1.6251843828f, 0.7726598898f, -3.4186630096f, 1.4817625010f, -2.9918958534f},
};
const float bias0[H1_SIZE] PROGMEM = {0.3660098582f, 0.0473040804f, 0.2159620399f, 0.0306860193f, 0.0231050563f, 0.0230068206f, 0.2996103444f};
const float bias1[H1_SIZE] PROGMEM = {-0.2053943708f, -0.0934196077f, 0.4427738467f, 0.2159017039f, -0.0050690920f, 0.3832062202f, 0.1253091480f};       
const float bias2[OUTPUT_SIZE] PROGMEM = {-0.4951698143f, 0.2712945801f, 0.5678445740f, -0.6117050458f, -0.0179566594f, 0.0336995497f, 0.4034444925f, -0.2292941595f, -0.0723182088f, 0.1501606914f};